*UNKNOWN* -0.0248170909298 0.0184280731689 -0.0288471311201 0.0118811884861 0.0477450980157 0.0231006977351 0.0400736445276 -0.0148699861827 0.027922300336 -0.00684198756119
、 -0.011669648361 0.0268273001462 -0.0166759826864 0.0137016216528 0.0414860910705 0.0182545046596 0.0306205213279 -0.0145977170869 0.0248707377634 -0.00496091015448
的 -0.0126103747059 0.0301155844615 -0.0212821186605 0.0122736817056 0.0440286217769 0.0279650211418 0.0358441561507 -0.0132148024512 0.0218083520877 -0.0122279043531
国 -0.0220620907791 0.0233872293413 -0.0206807848434 0.00582572995896 0.0287223861388 0.0225520902302 0.0332780346602 -0.0186998373007 0.0270998642622 -0.00480265611309
一 -0.0179037685959 0.0192731631685 -0.0135240408077 -0.00352245756828 0.0407246529199 0.0230303893019 0.0257988743326 -0.0244054661588 0.0132866165717 -0.0114644612541
在 -0.0151442774434 0.0198715711357 -0.00928589790527 -0.00281259352659 0.0348802024892 0.0152456607689 0.0353356806197 -0.0248437800348 0.0181837489503 -0.0144431157094
中 -0.0221466737989 0.0114666414829 -0.0146720363102 -0.00249485987185 0.0310034052371 0.0172426761587 0.0358706209496 -0.0266940483676 0.0238729787078 -0.0161021631637
人 -0.00768985111482 0.0201361903739 -0.00989254095032 0.00645869545079 0.0430506902023 0.0118274687741 0.0280947717695 -0.0269879861271 0.0143907712292 -0.0164268208987
了 -0.0176260107012 0.0167971509601 -0.0243396784185 0.00799486958491 0.0364002195422 0.0139624570343 0.0293146358684 -0.0243871233484 0.0174400901274 -0.000551883827574
是 -0.0168627236452 0.0206335467671 -0.0222617727073 0.00793035529316 0.0293696003417 0.011986283488 0.0286790294507 -0.025269050376 0.0213431928768 -0.0173323693887
和 -0.0139443895485 0.0173080668329 -0.0143874189901 0.013739402052 0.0367212503214 0.0233369096396 0.0354294237911 -0.0196421191272 0.0142773536314 -0.00126513968855
有 -0.0146553259842 0.0230702362301 -0.0117423567817 2.29009414455e-05 0.0377363855592 0.0151357013197 0.0335113176806 -0.0149165499549 0.0224568366834 -0.00405480563048
大 -0.011869219153 0.0207621665032 -0.00939420682938 0.00723812556689 0.0382213596205 0.0232015195333 0.0228577116132 -0.0236443311601 0.0211832313654 -0.0135032639934
不 -0.0110691126058 0.0173343553061 -0.0216464912082 0.000226249752577 0.0360818714575 0.0200926773932 0.0291441442532 -0.0138001527138 0.0183797605529 -0.00977546589507
年 -0.00840155716903 0.0164653645218 -0.019015040197 0.0115931835564 0.0428021210774 0.0240278194709 0.0218439063316 -0.0115964699584 0.0213060031069 0.000587340616259
会 -0.0210069350968 0.0236968304967 -0.0226856799601 0.00600995829886 0.0254970833937 0.0242621253475 0.0324562091679 -0.0163687591757 0.0141871403093 -0.0159913612159
为 -0.0102041923005 0.0164364676952 -0.0113451245445 0.0107044847259 0.0422434539873 0.0246679721341 0.0173969316431 -0.0199892057539 0.0201694021784 -0.0142418589313
业 -0.0153050745148 0.00993208717164 -0.0235340163933 -0.00504798915486 0.0415360217468 0.013983010464 0.026274642774 -0.0115988010482 0.021663381278 -0.0172951680264
发 -0.0198198635378 0.0180369616164 -0.0135394554502 -0.00156184901922 0.0385534682064 0.01853013699 0.0252778123093 -0.0143045715031 0.0192049578933 -0.0108694323911
“ -0.0155992836403 0.0140966257992 -0.0204636533145 0.0123697138682 0.0403086753769 0.0190244659772 0.0230455593412 -0.0218148224742 0.00743576149824 -0.00984298490091
” -0.0187762045098 0.0233299520425 -0.0197198290833 -0.00198377510281 0.0278024764892 0.0111935871637 0.0336008578935 -0.0199352976795 0.0181738410474 -0.00126171953364
上 -0.00645356275124 0.0154197412353 -0.014578861299 -0.00018145688253 0.029879366828 0.0257401452691 0.0279279589755 -0.0219028770999 0.019815207384 -0.0032207793058
要 -0.0108580170537 0.0228704755012 -0.0191721171761 0.00915722656031 0.0244145717449 0.025296290946 0.0281537418208 -0.0218204286914 0.0232555046718 -0.00279201952253
地 -0.020809587846 0.0146503678815 -0.0175404787873 -0.00462060412465 0.0328581305614 0.0191241440233 0.028810074523 -0.0207256669742 0.0140536645569 -0.00749935670795
作 -0.00884004688228 0.011524157655 -0.0175049302694 -0.00297681798837 0.0406208548413 0.0175938680683 0.0308807467758 -0.025969055307 0.0108913527293 -0.00887816772226
这 -0.0148601326533 0.0233883556663 -0.00840829185805 0.00764076595481 0.0356762075619 0.00714854430897 0.0236811738956 -0.0132491669476 0.0224324948288 -0.0107517312947
出 -0.0189039413011 0.00962179195842 -0.0251564849393 0.0122294863679 0.0362839496211 0.0229174099042 0.0225481485301 -0.0156091240426 0.00725397106949 -0.00812740699691
工 -0.00486371039061 0.0236201903149 -0.0190544169008 0.0127516195975 0.0262420356787 0.0254876213038 0.034567143146 -0.0114713886128 0.0182301048345 -0.000301741788063
行 -0.0178389309872 0.0237206036253 -0.0132707841328 -0.00567231346654 0.0297016652153 0.0106156623981 0.0358372950167 -0.0177414189723 0.0155966985936 -0.00506375733207
个 -0.0187657391741 0.0130964738203 -0.0116192495439 -0.00197552285561 0.0384529954056 0.0155455080492 0.0229604655061 -0.0130957516028 0.0271670418598 -0.000326668770839
民 -0.00704848655957 0.023176681187 -0.0199693184372 -0.00424643578277 0.0326873165382 0.0134088968399 0.0208463622708 -0.0273433111707 0.0209040922135 -0.0176159264967
日 -0.0102593875122 0.0117144846362 -0.0253315621942 -0.00454918579697 0.0385549082828 0.0142739886306 0.0268981647976 -0.0177129072112 0.0237992171803 -0.00413900389503
家 -0.0188833427362 0.0108910883554 -0.0247180790394 -0.000161622786091 0.0301161012565 0.0178973086513 0.0313014390676 -0.0145253399046 0.0123334374355 -0.0106007833049
到 -0.0172074452459 0.0198777927973 -0.0210222218371 0.00698388516135 0.032501261338 0.0198247561616 0.0172845917518 -0.0163053613893 0.0143929829444 -0.0109229184604
经 -0.0172251013371 0.0112107305418 -0.0173772742933 -0.00504477723798 0.0385487297649 0.00958363950788 0.0272662972415 -0.0216742574965 0.0177871256804 0.00105314502412
部 -0.0128274563637 0.00965619221764 -0.0188538394675 0.00412206617864 0.0363861112012 0.0226965207237 0.0248946676927 -0.0261113959236 0.0152655480163 0.000249051398863
来 -0.0172221801967 0.0220270221577 -0.011809517111 0.0022799131174 0.0344066076291 0.0135609070871 0.0262875242406 -0.0159880961631 0.0205741221788 -0.00279013407454
对 -0.0122188824516 0.0163345456737 -0.0128277823318 0.00658961639 0.0325171639678 0.013705577586 0.0358836090677 -0.011278311223 0.0173203612158 -0.00713945991601
以 -0.00553949143481 0.01466196799 -0.00497405252765 0.00459914422757 0.0354321211314 0.0236858283204 0.0297258523892 -0.0218967684272 0.0164047334991 -0.00900521719881
生 -0.0224318037048 0.015984669406 -0.0201550398687 0.0103842217315 0.0234774034579 0.0263346072011 0.0236195818292 -0.0198781415922 0.0061580999596 -0.0137885693748
成 -0.0131620959096 0.0223094368638 -0.0205134361929 0.0117341177845 0.0337580300248 0.013344025549 0.018321632925 -0.01906310059 0.014938991737 -0.0154729484215
我 -0.0230976030022 0.0152675525046 -0.0235433600894 -0.00163699781946 0.0259052955649 0.0122824644931 0.0180813153352 -0.0263893605328 0.0076072227189 -0.00521645347433
全 -0.00248586473192 0.0233165319633 -0.0148966885704 -0.00363162373122 0.029233265505 0.014154761173 0.0312251417046 -0.0231712205939 0.0186473425523 -0.0103989102116
们 -0.0162288361043 0.0172783119881 -0.0174919434453 0.00600220135727 0.0269434912434 0.0129393276552 0.0226245981672 -0.0179305129782 0.0164541502029 -0.00818018372597
时 -0.0164910756016 0.0237158137819 -0.00726029455137 -0.00524811848541 0.027596760127 0.0147863201579 0.0327131053211 -0.00789075667976 0.0248434269342 -3.71561647329e-05
政 -0.0156629791223 0.0226703660846 -0.0178734379378 -0.00481516848367 0.0340093640316 0.00849445475376 0.0245122135759 -0.0225501740908 0.0170014400319 0.00151019879273
新 -0.0177542297669 0.0145113059605 -0.0174201579827 0.00832144347373 0.0274307327197 0.0110507481454 0.0248771422873 -0.0209113951531 0.0220120900755 -0.0127624679831
市 -0.0110560175859 0.0218769730997 -0.00982240139173 0.0101153687898 0.0340020503524 0.0185658839495 0.0248460274798 -0.00447353787255 0.02204097529 -0.00698671723076
学 -0.0231821125479 0.0138934823054 -0.0232740805107 0.00206738779203 0.0269263012528 0.0204469744845 0.0252891579898 -0.0107275703852 0.0256734677472 -0.00709193804073
他 -0.0173647722738 0.0181260003524 -0.00668519175954 0.00118305798639 0.0316008236761 0.0121279174729 0.0236500295434 -0.0182009284524 0.00968666544346 -0.00722063245639
进 -0.0164242813965 0.0127557631648 -0.0137587657805 0.00821070101946 0.025757562663 0.023815531648 0.0307984812124 -0.0245046035523 0.00937876931478 -0.00789557912243
多 -0.0210644510359 0.0134503840615 -0.0102386753611 0.00683271924684 0.033528819883 0.021065364271 0.0193291486394 -0.0196296838388 0.0180991382551 -9.14199205724e-05
主 -0.015594951705 0.0157738760048 -0.027753288538 0.00828599339746 0.0281605757163 0.0177918478969 0.031482628267 -0.0122352845355 0.0105594190836 -0.0107807456895
长 -0.0228210307881 0.0154654846891 -0.0126086780138 -0.000575555791459 0.0292261422267 0.0109896175629 0.029076071917 -0.0138537089755 0.0191717146726 0.000614295981994
理 -0.0223652166103 0.0184480696233 -0.0122686133357 0.00505284475173 0.0387605262169 0.00662178838916 0.0278664676947 -0.00995057875342 0.0146186189631 -0.010175932048
实 -0.00880690283516 0.00951486954454 -0.0171788514281 0.00396418959102 0.0370413364063 0.00981188062405 0.0216011097635 -0.0198072867403 0.0185707348242 -0.000281668738959
展 -0.0120346377962 0.00995728638745 -0.00628434565827 0.0108008081333 0.0330782345622 0.026126153655 0.0274083021009 -0.00967215000163 0.0225539196465 0.0013405431339
方 -0.00676211404777 0.00888347226701 -0.02298933146 0.0015583291077 0.0432425594619 0.0146325453305 0.0212447457796 -0.0111519301845 0.0157358384897 -0.000122623739056
月 -0.0207519662073 0.0201540433144 -0.0163757702781 -0.00527269985861 0.0362594285762 0.012839516511 0.0164808517303 -0.0263499791394 0.00692004812371 0.000386097591487
同 -0.00851859696545 0.0238024901903 -0.0111985788751 0.00387164100835 0.0267548996353 0.0262054459243 0.0219668836501 -0.0170297656428 0.0124859193649 0.00203678263632
本 -0.0182822702424 0.0111848861246 -0.00972329383512 -0.00559631163094 0.0298159531479 0.0145597474812 0.0180980543752 -0.0200918064726 0.0136297573211 -0.00908192542676
重 -0.0164748036137 0.0159244430214 -0.00807017738137 -0.00327497002627 0.0284804715732 0.0166177152736 0.0310781665176 -0.0165107108057 0.0156623083729 0.00117457154884
于 -0.0133363296991 0.0174554867427 -0.00891731612741 0.00889662092393 0.0343400876033 0.0210801556743 0.0251907126399 -0.00936887169929 0.00859620367651 -0.0128168469397
建 -0.0209528801047 0.0094844239336 -0.0149657435076 0.00349815007397 0.0332092770572 0.0240199232668 0.0151381532615 -0.0229337222758 0.0153866529949 -0.00171887225433
下 -0.00591239201135 0.0247392330116 -0.00478275069872 0.00132392377872 0.02867165995 0.00970244891887 0.0283482046028 -0.013183241626 0.02176818228 -0.0154074422905
开 -0.0129583754026 0.0177106810278 -0.0193976492796 -0.00304604555143 0.0379463538267 0.00781433982635 0.0241389638845 -0.0238194201149 0.0137787044668 0.00197646639545
者 -0.0118617801443 0.0221364819801 -0.0184928917585 -0.00131021982786 0.0261905375975 0.0128436396608 0.0254859748266 -0.0166262164063 0.016254994434 -0.00369440582217
关 -0.0152128616017 0.0143333052805 -0.0125006346873 -0.00505628187063 0.0365376776496 0.0193103834339 0.0288328594203 -0.0159328456635 0.00722867623079 -0.00906671886526
产 -0.0148583244461 0.0121114623127 -0.0237238704553 0.00800820731326 0.0221665431373 0.0181249486356 0.0284499288547 -0.0136022185486 0.0235479365516 -0.0148541309526
力 -0.00732928941764 0.00872619764105 -0.0154808185634 0.00186712395518 0.0346790750865 0.0156717420524 0.0214623821725 -0.0278301312117 0.016768155526 -0.00134363651402
法 -0.0175986574358 0.0130785837578 -0.0251100032415 -0.00433063601087 0.0301949073277 0.0113477069431 0.0238252123869 -0.0277629987584 0.00865182641737 -0.00141619149651
高 -0.0210991993281 0.0191626814517 -0.010723750887 0.00281999999183 0.0277175422256 0.0127555244846 0.0263217380445 -0.0177908896516 0.0134811975916 -0.00266386936038
公 -0.007259837198 0.022982082134 -0.0228850167399 0.0108075039568 0.0262506119435 0.0226650061036 0.0268183618586 -0.00587618809546 0.0188627243171 -0.00951209521731
现 -0.0133047214028 0.013949946245 -0.0174176188925 -0.00145802111207 0.0308991816621 0.0203664100226 0.0205289524854 -0.0161775333229 0.007528720345 -0.0140639002178
动 -0.0196174585568 0.022758320474 -0.021863284223 -0.0032789044677 0.028107467097 0.00556043597161 0.0283496958784 -0.00944093578968 0.0214807294277 -0.00590656729012
加 -0.0170305059564 0.0171165302097 -0.0060463542712 0.00369769129882 0.0260680246759 0.023985115307 0.0220011059169 -0.0263489895143 0.00985530543331 -0.0107635533103
就 -0.00309716456468 0.0117683870637 -0.0123607283546 -0.000744756906346 0.0311766287144 0.0215282244282 0.0287828181238 -0.0150553616525 0.0205439271251 -7.06486146015e-05
分 -0.00801460978541 0.00950238779485 -0.0182681852239 -0.00356863554165 0.0361510467519 0.0109923448304 0.0212437114992 -0.0147486442545 0.0186295561936 -6.19598353355e-05
社 -0.0208133284303 0.0150743734792 -0.00858584285618 0.0094748280807 0.0240226384941 0.0105362311388 0.0215565233402 -0.0257146988351 0.0139417421682 -0.0150949837829
报 -0.00949015978346 0.00847724865496 -0.0103159628899 -0.00470792888853 0.0352378029235 0.0222436311718 0.0186453934591 -0.0188478535971 0.00766741554399 -0.00656946678805
前 -0.017738001151 0.0136556862484 -0.0115111038103 -0.00019521148372 0.0269843109353 0.0154007027227 0.025590508822 -0.013942298415 0.0176719825824 0.000307269747809
后 -0.0156711378999 0.0187417754293 -0.0186665987317 0.0107083949124 0.0234364903095 0.0110045731835 0.0186924697218 -0.0183349271724 0.0196067537036 -0.00683995631706
员 -0.0149365486116 0.0085752729888 -0.0176889182816 -0.00492173582683 0.0290337459139 0.0271451846856 0.0221933991407 -0.011576990907 0.0226210208389 -0.0149190833227
自 -0.0088981945093 0.0060658975488 -0.00766212558869 0.00545822949334 0.0317021657298 0.0132479863231 0.0288421202025 -0.022559324652 0.00819452372239 -0.00179436230757
用 -0.0121967206117 0.00724505491585 -0.0194570619223 0.00895509308243 0.025072776176 0.0212202559117 0.0250802964131 -0.0151635721841 0.00958219182095 -0.00578833735125
定 -0.00416271252587 0.0190982288547 -0.0228613493189 0.00694630927227 0.0357781298824 0.0188576329472 0.0158642223833 -0.01524959233 0.00618428939386 -0.00918084604424
合 -0.00257005775811 0.0217002845285 -0.0167953371781 -0.000205368795598 0.0277697730156 0.0229624592406 0.0139913562641 -0.0189431201552 0.0200230681284 -0.00622971908098
说 -0.00431196719514 0.00910827885593 -0.0131072431111 -0.000361039854647 0.0255834155392 0.0145720407051 0.022039480085 -0.0186416032321 0.0224115180822 -0.00230940986901
区 -0.00829974696403 0.0114506694166 -0.0126905395286 0.00868780834163 0.0356785106881 0.0129316934551 0.0293938993619 -0.0115806392246 0.00753658177919 0.000130788677964
能 -0.0130973045985 0.0147533779162 -0.0142471380194 0.00437290626529 0.0309939644572 0.0154218179953 0.0300323779867 -0.0127309044052 0.0117262365728 -0.00843734530742
与 -0.00594418150724 0.0121295485821 -0.0189885720637 -0.00547941402224 0.0360793704631 0.023564177675 0.0154788242912 -0.0185445758953 0.00738325007812 -0.0143222292784
过 -0.00428363213483 0.00666048540131 -0.00417945273829 -0.00480023185857 0.0361609966665 0.0168660310631 0.0207127018666 -0.0184285388464 0.0189012156756 -0.0106016383563
济 -0.00744205584233 0.0124791300864 -0.0119036240766 0.0101278655878 0.0247710515443 0.019357525864 0.0234889463092 -0.0220479574722 0.0170101758075 -0.0113029083178
面 -0.00535281946705 0.00758867838202 -0.0179088665895 -0.00453921282918 0.0309900966975 0.0232315161634 0.0211306393102 -0.0236307726198 0.0117089097237 -0.00132110164662
场 -0.018112702055 0.00838510805859 -0.0208174759573 0.00687263204591 0.0241288163774 0.0103388578784 0.0254409255621 -0.0170237277699 0.0170494355672 -5.5791653432e-05
化 -0.0177762675157 0.0245021423438 -0.0203783133172 -0.000844934132926 0.0230410105262 0.012711322774 0.0229983051278 -0.0152999020907 0.0210077031483 0.000761696394818
事 -0.0182057895112 0.0180413061886 -0.0217897661419 0.00240641444799 0.0261725677348 0.0123084381312 0.0235533195143 -0.0114456805302 0.00583979189081 0.000468732316544
制 -0.00795233917959 0.00914787778776 -0.0054473015783 0.00340835906296 0.0393967175586 0.00983479828864 0.024489850521 -0.0199856880153 0.0104692054252 -0.00525657317021
机 -0.00312400999797 0.020167012608 -0.00828998400651 0.00417425457944 0.0352989130743 0.0142034020776 0.0291436939762 -0.00797798505787 0.0074327626783 -0.00110585281343
等 -0.0215819683963 0.0111139991659 -0.0188570596087 0.00335271088796 0.0327854641697 0.00703733291468 0.0230356911128 -0.00654215063869 0.00845201106407 -0.00311468532618
得 -0.0111058319412 0.00696218842042 -0.0149820896544 0.0074894914064 0.0222480490043 0.0240563917835 0.0255100457985 -0.0255026399134 0.00928299456622 0.00142908873831
电 -0.0121558516054 0.00913753152953 -0.0196365930317 0.00238480071985 0.0229138607892 0.0157334419216 0.025699272906 -0.0220314546287 0.016973705555 -0.00306968409608
记 -0.0142101110663 0.0151635123392 -0.00739328438161 0.0109355237759 0.0277975711611 0.018583708483 0.0183319275273 -0.0171879254142 0.0195465296162 -0.0126125416598
天 -0.0135504595468 0.00819055024582 -0.00576233548778 0.0124177413239 0.0357852973302 0.013967842818 0.0202839709258 -0.0211444742429 0.00757149039577 -0.00693417343961
也 -0.0205876084837 0.0132386025865 -0.0126206022674 0.00769234588129 0.0224582139534 0.0158093319326 0.0285835545713 -0.0100723482657 0.014848876913 0.0016096196579
总 -0.0176884662246 0.00651725557647 -0.0150418731762 -0.00165624227021 0.0365295248709 0.0109732341177 0.0208659114189 -0.0105247282165 0.0187460181483 -0.00612605386575
资 -0.0093232582372 0.0146458527919 -0.0247730998503 -0.00617943010342 0.0312859515334 0.00847982651652 0.0162222757287 -0.00783042640312 0.0222953002721 -0.0141603955202
务 -0.0218157708701 0.0232787182464 -0.0178411790413 -0.00319178133691 0.0317441488946 0.00740733112305 0.0178647460121 -0.00600387395823 0.0163954560733 -0.00615561962471
利 -0.0120711745882 0.0179142476752 -0.0183617638777 0.0118692122621 0.0310571892215 0.0151839475279 0.0102017263598 -0.00887517703835 0.0196224349524 -0.00516134230186
水 -0.016184028376 0.009937274645 -0.00968253881842 0.0111329326927 0.0248290550361 0.0225759327109 0.016492149075 -0.00788389504329 0.0176236461997 -0.00666391705299
好 -0.0128208872722 0.0194559925126 -0.0145105515257 0.0088594196222 0.0305722409882 0.0168167535297 0.0172789123168 -0.0198664915899 0.0095097466913 -0.00613688975302
之 -0.0167557087978 0.0124156722851 -0.0151536274454 -0.00367329418641 0.0251576073785 0.00925619782958 0.0216316789088 -0.0229044136381 0.0204705427748 -6.86584123919e-05
体 -0.0101794965266 0.020638381467 -0.00336566404281 -0.00475979245933 0.0286314913296 0.0238612736386 0.0306889424084 -0.012096272003 0.00537485719881 -0.00457394417421
而 -0.0214668025618 0.00897573163031 -0.0039412579791 -0.000520217643462 0.0307663731084 0.0108281592335 0.0311490407996 -0.010308868371 0.00997494342755 -0.000871576406781
文 -0.0213007308715 0.0146589386068 -0.020660106246 0.0070728976663 0.0241001315214 0.0151178080043 0.0212260932316 -0.0169838454328 0.012446824256 -0.00346850562963
各 -0.0203126374597 0.0155055324383 -0.017379480348 -0.00195359493035 0.0306180594749 0.022395794247 0.0162974785623 -0.00717810103218 0.00436424067553 -0.00322518793427
北 -0.00911004060269 0.0103487724739 -0.0169999188042 0.0111552042076 0.0247923514986 0.00807081137947 0.0281148746165 -0.0190483377645 0.0216824535359 0.00068437967415
小 -0.0121924919453 0.00862091613591 -0.00948827698263 0.00392711002395 0.0298689197864 0.0147310610634 0.0141353298665 -0.0151031363748 0.018265500507 -0.0121315331002
外 -0.00733456931569 0.0227928343543 -0.0097409692611 0.00135694603006 0.0216213790877 0.0122085453415 0.0261004977024 -0.0117941962827 0.0215932783403 0.000639025088115
党 -0.00518705955447 0.0217295283508 -0.0170932954822 0.000227953129536 0.0238713475473 0.015346480612 0.0243031932901 -0.0188017452016 0.00339927426041 -0.00817153727697
委 -0.0170778388348 0.0245128084949 -0.0071568137348 0.0103902696708 0.0335531816598 0.0133584353539 0.0254093359877 -0.0106435713771 0.00700615378806 -0.00117715999552
表 -0.0206581690415 0.0204145947271 -0.00681958068121 -0.00592614415272 0.0296992212874 0.014746329476 0.0153303902294 -0.0215990671634 0.0185127944799 -0.00503128629719
平 -0.00267291484477 0.0245898169673 -0.00394610690988 -0.00449804780022 0.0376639032911 0.010617637182 0.0222265341621 -0.0106617473167 0.00821180225076 -0.00558806341167
设 -0.0194697636558 0.00815631855624 -0.0223122805578 0.000481030110223 0.0209208990986 0.0151249434679 0.0279303644884 -0.0187039859464 0.00690808801305 -0.015878866576
将 -0.0150874528883 0.00692153600504 -0.00284273308498 -0.00420770019357 0.0313850976976 0.0153363349138 0.0217531307535 -0.0132999829514 0.0214044597191 -0.00870695377513
心 -0.0059061497316 0.0161569914503 -0.01495390376 0.0118991418978 0.0303937698029 0.00771797132281 0.0209658542729 -0.00936562835607 0.0171269501239 0.00147517644827
代 -0.012592488633 0.0145041894628 -0.00953681785957 0.00343599467555 0.0269207890591 0.019178106547 0.0216740139318 -0.0125549865574 0.0164037703528 -0.00153214103676
问 -0.0124568674731 0.00421564601906 -0.00718453140994 0.00289652178554 0.0309620036106 0.0185525597223 0.0263056694714 -0.017653812662 0.0184437300541 -0.00507689836382
万 -0.0123855348987 0.0181863749972 -0.0222675177499 -0.00528851367064 0.0235256337936 0.0248195654957 0.0146056355545 -0.0181131879862 0.00378813340021 -0.009931491892
金 -0.0131713891125 0.0211753179521 -0.00386979231162 0.00018721545404 0.0140090964366 0.0189827650849 0.0217964807544 -0.0191412348633 0.0208507098946 -0.0134026632191
企 -0.00312041416108 0.00815703756028 -0.0126747781326 0.00838820339927 0.0268914819443 0.0212436138228 0.0213450533954 -0.0208637524861 0.0190328259823 -0.000223649218055
从 -0.00623889137309 0.00420414944906 -0.0135264236481 -0.00411938769903 0.0308836483521 0.0171905777758 0.0271801380316 -0.00395556698682 0.0172315980944 0.00389626875543
美 -0.00733448096722 0.00279368172702 -0.0202777540243 -0.000846969130052 0.0288123842512 0.0192933019238 0.0270850688797 -0.0204987948739 0.0016389302346 0.00284203345374
次 -0.0148646625528 0.0147770874136 -0.00259513351284 0.000727658766055 0.0291983943412 0.0120905446868 0.0259712567009 -0.0135123937859 0.00721222733153 -0.0105735700145
队 -0.0150326994966 0.0136072482243 -0.00752952359094 0.0114369890601 0.0283993897341 0.0186960054183 0.0131298690521 -0.015620802746 0.0101131351892 -0.00210488602818
华 -0.0145821308798 0.00942402848647 -0.0146008021258 0.00864145861339 0.026795286151 0.0052251631211 0.0118563263777 -0.0159396720826 0.0172525267389 -0.00233073083368
度 -0.00540235464538 0.0169907115665 -0.0147515849231 0.00341174157602 0.0233326279188 0.0167935061981 0.0270403375608 -0.0165342426143 0.0165475756865 -0.00212486107466
提 -0.0130664167169 0.023279791172 -0.00749039820175 -0.00556831845809 0.0271031164592 0.0234928173855 0.0190257296598 -0.0182867062979 0.0110843351966 -0.012467704416
科 -0.0099860576143 0.00739728191443 -0.00796402591552 0.00215672556999 0.0318785257082 0.0180223729955 0.028337733061 -0.0205854764639 0.00774739690045 -0.010895248362
农 -0.015972729387 0.0122760458564 -0.0139800347463 0.0112761197899 0.030536611842 0.0139111437198 0.0195562706808 -0.00215993504499 0.0180965448369 0.000213753225628
可 -0.0120409240467 0.00806912898616 -0.0151511485501 0.00177407626275 0.029809721146 0.0190279688805 0.00853129667925 -0.0198354406399 0.0173775907478 -0.0041416776835
当 -0.018233777766 0.01874326981 -0.0107908574811 -0.00451140331252 0.0241267873027 0.00689927019799 0.0173803320246 -0.0228543526368 0.00780130775536 -0.0031389168322
今 -0.02092969526 0.00681862731364 -0.020616216656 -0.00075265119876 0.0239173909713 0.0102828981813 0.0273054196703 -0.00538961585158 0.0142719118595 0.00225203020488
两 -0.0142429212056 0.007364805148 -0.0153782052536 -0.00103739347782 0.0287312046998 0.0186882077159 0.0222508400563 -0.00691918072065 0.0214607790886 -0.00286265260647
元 -0.0122902553419 0.00758668419513 -0.0153967246357 0.00702117614153 0.0243598542372 0.00760696102103 0.0307670548825 -0.011437457857 0.0155315648601 -0.000949343377154
保 -0.00510192885423 0.0138041942891 -0.00541050183198 0.0109916742732 0.0227391164083 0.0168190868846 0.0222385587863 -0.0141222226517 0.0219550323754 -0.0102769695901
里 -0.000342991256016 0.0209005236218 -0.011852111588 0.00890245759732 0.0296352371995 0.0164732162684 0.0158822586864 -0.0185952825367 0.0145891097214 0.000927473747699
十 -0.0195170179399 0.015150715471 -0.0123141095816 0.0103871814317 0.0198745106367 0.0120890871314 0.0191560247563 -0.0196431917373 0.0154706424789 0.00095550924587
位 -0.0184709798556 0.00805134933493 -0.0199681350605 0.0114193642358 0.0264135942057 0.0216413757897 0.0191031802378 -0.00653830449882 0.00861126066432 -0.00828602759078
着 -0.0121099278977 0.0162226392294 -0.0136982354185 0.0107219616322 0.0339560199744 0.00359914196816 0.0136001538367 -0.020098264064 0.00227094181772 -0.0111533241104
种 -0.00841665540252 0.0163285332856 -0.0134936698538 0.00176763801776 0.0265045477107 0.0130859650662 0.0203643410298 -0.00819993274273 0.0177894123602 -0.00260077517046
其 -0.0197367945743 0.00738147051255 -0.0137343103322 0.00454224130329 0.0306630660904 0.0119755380279 0.0242758155852 -0.0078172035395 0.00850271951546 0.00346763172375
内 -0.00796016056491 0.0212614316125 -0.0109870772896 0.00749603957594 0.031656687973 0.0222427540407 0.0139710089318 -0.0128629083129 0.0111642307088 0.00206582236458
起 -0.0178743286242 0.0224920268515 -0.00380582514988 -0.00574385547547 0.024209848375 0.0173793466038 0.0243019371496 -0.00484557864178 0.0174653509694 -0.00954359884386
入 -0.0105514689313 0.0171283087051 -0.0188759236376 -0.00328101308407 0.0247671733972 0.00947687693438 0.0272787716856 -0.0118384456536 0.0090698047438 0.00102889763267
子 -0.0050554866371 0.0246101825477 -0.0055856207847 0.00138450844556 0.0202437012797 0.0213757101176 0.0134660957154 -0.0172626440352 0.0211194507382 0.00251279628524
明 -0.00875307737313 0.0182022225631 -0.0219133157767 0.00323325522962 0.028688312106 0.011671947823 0.0135392999854 -0.0201883337975 0.0104488052488 -0.00786188300597
还 -0.0116389436837 0.0210741903434 -0.0185504100937 -0.00021614816154 0.022173036283 0.00803290742257 0.0205079292818 -0.0123345835313 0.0177858305945 -0.00218822099164
题 -0.00349555069234 0.0177820618497 -0.00545689840079 0.0116363918556 0.0286342383617 0.0128840327536 0.0182999089274 -0.0205389543751 0.0197924923321 -0.0121046546034
强 -0.00685317312105 0.0206358244556 -0.0153298993957 -0.00309421564074 0.0193462877245 0.0196940046517 0.0208463698117 -0.010555663779 0.0213052520159 -0.0134084636527
目 -0.000902062162191 0.0096437299266 -0.0141559663874 0.011113228422 0.0313997677829 0.00564488415315 0.0204735875376 -0.0194853947866 0.0134580882266 0.00134011116449
基 -0.00650087387495 0.0106626357588 -0.0134051060074 0.000314595712787 0.0250951702596 0.0201600327782 0.0270701480625 -0.0215465003918 0.00511851465872 -0.0130836807485
所 -0.0147663038461 0.00790114355604 -0.00957282049537 0.00471705340008 0.0254463673038 0.018922229258 0.0262552526607 -0.00787326159825 0.0167881927567 0.000514779757315
名 -0.0141270538516 0.020413233008 -0.0204224969477 -0.00737294881867 0.02013410664 0.0126112249314 0.0222331263908 -0.0209374014872 0.014927983143 0.000153248865763
第 -0.0136236674758 0.00725513446 -0.00796181399393 0.000789325233067 0.0230465263729 0.0184283753067 0.0196312370242 -0.0177329750594 0.0144660898992 -0.0126513212719
改 -0.0148086129177 0.00448916276586 -0.0164490533765 0.00281514486953 0.0251138494726 0.0111515122058 0.0264810661393 -0.0169123742239 0.015729538831 0.00224412436165
系 -0.0116860260337 0.0147246383398 -0.0124076939883 0.00173239058297 0.0310576033312 0.0144134438025 0.0220405569066 -0.0125245051701 0.00649373426206 -0.0135803245435
已 -0.00228298331448 0.0168211559538 -0.0146352360507 -0.000130397202433 0.0301443439788 0.0179220842266 0.0197702154654 -0.0171367359238 0.00145721878005 -0.00656120293929
通 -0.00944435047928 0.0223926681861 -0.00731258368225 -0.0059976654638 0.0251917717765 0.0131116866026 0.0181231438538 -0.0104324804562 0.0198761154569 -0.00673317456878
立 -0.00532642995875 0.011271995785 -0.0084916573986 -0.00396756236119 0.0281270150153 0.0227314087003 0.0201423736723 -0.0175998021501 0.0153130546947 -0.00365851307053
军 -0.00380686020186 0.019879944827 -0.00620051880401 -0.00619972090046 0.0240624123475 0.0151560096759 0.0206295454536 -0.0202494876532 0.00957802885925 0.00221311732737
都 -0.0170164808387 0.0134065288909 -0.0242110297537 0.00999154818602 0.023992912195 0.0107447131814 0.0198370130609 -0.00886277388304 0.00897148707777 -0.00144161290618
导 -0.0051524429613 0.0220342632116 -0.020191396928 -0.00275804436927 0.0309641606842 0.00800661648113 0.0166877912794 -0.020833494338 0.00612349584627 -0.00651257384239
安 -0.0196805633161 0.0114455712925 -0.0148143706485 -0.00637553268593 0.0264714947986 0.00748722450333 0.0227056190176 -0.00909130534164 0.0201342822761 -0.0149775005493
三 -0.00691963388815 0.0177207206724 -0.0150522167002 0.00733889068961 0.02890766765 0.0174781390307 0.00912556150586 -0.021011839477 0.00409862481649 -0.00959118081777
领 -0.0111297790312 0.0139047826765 -0.0108664551029 0.00040011482884 0.0241563516072 0.0129251546659 0.0326689983646 -0.00804004849471 0.00942288505584 -0.00163608054451
正 -0.0149587429891 0.0206550661441 -0.0182101677595 0.00587859437953 0.0164223471377 0.0226317744748 0.0236813868036 -0.00655438786083 0.0131366037222 -0.00623815856198
任 -0.010786409082 0.0170246008595 -0.0151859120672 0.00839077403055 0.0249062070432 0.0102550652615 0.0235511527517 -0.0203498529186 0.00652838113712 -0.0005098020749
向 -0.0055711797279 0.0144724224125 -0.00269807086979 -0.00570250170623 0.0311313253152 0.00929165925859 0.018088481763 -0.0194949634121 0.0181417842468 -0.0131510961364
特 -0.00229735692837 0.0143065489801 -0.01875762916 0.00838635087873 0.0240231040014 0.0195400475799 0.0220548206394 -0.0103839759554 0.0170230196461 -0.00951693632
最 -0.0109327073687 0.0107372416988 -0.00387894301373 -0.00260364637058 0.0184162152764 0.0116584159885 0.022400700702 -0.0243357993642 0.01461462417 0.00076383173617
道 -0.00615893844053 0.0153421069333 -0.00234123848045 0.0117376982176 0.0308554410073 0.0152177235266 0.0194448796339 -0.0225837648885 0.0138559187622 0.00390475228271
决 -0.00398100991676 0.00939299317311 -0.0183378612737 0.00813979780495 0.0285166519795 0.0220914885672 0.0265763484551 -0.0118767940189 0.00374173649492 -0.0059347926024
世 -0.0125711668744 0.0110536188497 -0.0136390786599 0.00925609773596 0.0271056203807 0.00730845615613 0.0184642074192 -0.0124394650103 0.0178236819346 -0.0109500411683
组 -0.00681146433319 0.0221746031198 -0.0184136810561 -0.00332808252696 0.028551537774 0.0189167625903 0.0195329445672 -0.011337282503 0.00649007269368 -0.00629699243382
江 -0.0154700622141 0.00626454363161 -0.0129130871594 0.000842905202024 0.0269984726533 0.00362639102635 0.0126975069463 -0.00774441117021 0.0177093116334 -0.0114965627015
教 -0.00475112224128 0.00773729113537 -0.0148172866956 0.00224688776782 0.0249950963903 0.0135828471826 0.0235491043909 -0.00933878055029 0.0239236482843 -0.00688959735482
使 -0.00395694959344 0.0161470943034 -0.0154103236993 -0.0034855964039 0.0247580556359 0.014823470348 0.0121382483322 -0.0211558477408 0.0147183767182 -0.0117418586474
品 -0.00556131985554 0.0119491194857 -0.0215017185316 -0.00510151909595 0.0378042433698 0.00810081700187 0.0162626791542 -0.00852938819513 0.00921381293796 -0.00354849394385
议 -0.00870154559192 0.0203023789649 -0.00749978798565 0.00769928317503 0.0270785319322 0.0199765832137 0.0320713144286 -0.0131415004674 0.00756581759149 -0.00379932292102
海 -0.0029165432909 0.0169511940863 -0.0100996522912 0.00159867572278 0.0240591323288 0.016490697987 0.0264708401813 -0.0098364488302 0.0184725444341 -0.00149261358378
技 -0.0214829055081 0.0154821319957 -0.0185562404617 -0.00117768411538 0.0267599509053 0.012448266673 0.0251907160865 -0.0127360943214 0.00996232079266 -0.0140852651981
共 -0.0189116748095 0.013717612276 -0.0174814350124 -0.00731786708247 0.031960327896 0.0135928300188 0.0106567335316 -0.00618111035775 0.0210661977537 -0.00652537880555
情 -0.0198857657178 0.00610291004714 -0.0143810105901 0.0103845289838 0.0189811867548 0.0203856923506 0.011096010307 -0.0148338879454 0.015325054447 -0.0147398686861
意 -0.0087524529584 0.0224327769226 -0.0189997494099 0.00731058628923 0.0280267219335 0.00770352838171 0.0109021754242 -0.0236784904447 0.0131325979534 0.00265953940932
活 -0.00876105809891 0.0187127432382 -0.0130334096809 0.00455088909621 0.0199891436982 0.0221312140086 0.0271408697003 -0.00489529476573 0.00920282620797 -0.0118691528761
解 -0.0175158130805 0.0215814771862 -0.00562042287317 -0.00417788051949 0.0246921626033 0.0111478194479 0.0120410143832 -0.0196299937306 0.0206220171078 -0.0094474800943
西 -0.00420604942093 0.00807656686693 -0.0150548414074 -0.00409757580248 0.0213773810315 0.0178147469733 0.0171187792581 -0.0122383530901 0.0187586553728 -0.0136776965137
并 -0.0019580831456 0.0176224578023 -0.0157557661875 0.00648892896075 0.029653541438 0.0105448509313 0.0175067886519 -0.0163039386056 0.0144640734134 0.00194609272533
些 -0.0145678516502 0.0174636706335 -0.0181350629922 0.00498626769683 0.0172751690488 0.0161763019404 0.0195063995007 -0.0104573264789 0.0117604603598 -0.00447127614623
京 -0.00437182435418 0.0126377114544 -0.0113252382603 -0.00241048313823 0.0272152998405 0.00968278834036 0.0213237374787 -0.0202062278686 0.00518109317474 -0.00749511516547
南 -0.0143850138083 0.0116258271057 -0.0216570226722 -0.00588860770594 0.0214618718948 0.0120806033146 0.0238383418993 -0.0121056607263 0.0142466637947 0.000828675687489
增 -0.0184845355118 0.0048393961002 -0.0135082978036 0.00379404601879 0.0283535548275 0.00856913046043 0.0125425054474 -0.0203022196989 0.0167107590612 -0.0074403684585
持 -0.00607548831363 0.0187699300609 -0.0182789474514 -0.00502786766764 0.0231469623264 0.0154760044437 0.0195070169789 -0.00890480050232 0.0179668481561 -0.00614999249396
术 -0.0089587981128 0.00496655687847 -0.0141286685778 0.00719809733571 0.0207512840137 0.0226714815387 0.0244940679832 -0.018321844781 0.0179732330672 -0.0142565145271
统 -0.0043565954903 0.00819772581144 -0.00669263897054 -0.00146468653802 0.0376483486835 0.00759158170692 0.0211332641651 -0.0126645024866 0.0163894640453 -0.0152639010842
门 -0.0115268332715 0.00911992874073 -0.00905533327729 0.00556928256741 0.0288811095977 0.0119738763819 0.0155255370186 -0.0189912095973 0.0166724429279 -0.00107402014217
点 -0.0141316065271 0.0157208720146 -0.0103790790245 -0.00359278985453 0.0199499005273 0.0121886756305 0.0252360968929 -0.0160902464587 0.0178580218205 -0.000549464195269
此 -0.00752079981591 0.00185598400356 -0.00110202181765 0.00317823373066 0.0218813923686 0.013326926145 0.0229577042766 -0.0132846924818 0.0121920221369 -0.00664879350274
由 -0.0133852533754 0.00867619028589 -0.0155718726989 0.0114229421462 0.0224625913522 0.00942109927558 0.0227205628675 -0.019128881364 0.0122065305242 0.000330027305517
府 -0.0155211739883 0.0107176153317 -0.00907373729072 0.00318353385702 0.032808460562 0.0163473872242 0.0233203338657 -0.00363356664236 0.00974390026978 -0.00848358636291
比 -0.0188122707951 0.00589650886344 -0.0161570526271 -0.00385547829271 0.0281516758323 0.0131851401943 0.0218419795196 -0.0062374135936 0.00589227128634 -0.00889644922881
去 -0.00559632053367 0.0102609361619 -0.0201637338771 0.0011558824195 0.031540644212 0.0108004864117 0.0153486357427 -0.00281707980672 0.0140611870211 -0.00816060243127
省 -0.0185976350498 0.0189786245211 -0.0076597532672 0.0110578560643 0.0199628904998 0.00611436504902 0.0247558722464 -0.0196811702 0.00580934205612 -0.00951188078422
期 -0.00219155921019 0.0113737111545 -0.0184075231841 0.00143171437053 0.0237536923117 0.0115242536255 0.0175474009097 -0.0161888202391 0.0164613102864 -0.00350397050732
应 -0.0072385310535 0.0237478549271 -0.0141537438546 0.0103762830088 0.0174316043928 0.00537489349181 0.0233571306469 -0.0184344085894 0.00806556883358 -0.0107390905442
管 -0.0125968227265 0.0153920152738 -0.0086534798485 0.00796403822465 0.0274599393377 0.0180555606716 0.0150900467177 -0.0129129067308 0.0185856557194 -0.00178562593522
战 -0.0179807894921 0.0130218419501 -0.0135073075341 0.0120230484159 0.0135610310172 0.0147054743161 0.0229421411684 -0.0163765734204 0.0204124505906 0.00158372223593
干 -0.00188956078533 0.00306034771504 -0.0098256657203 -0.0015373997088 0.0310208971773 0.0156014257239 0.0199323992858 -0.0205957469837 0.0124139912195 -0.0031224456694
间 -0.00277046082199 0.0165963622966 -0.00396587617147 0.0120030898026 0.0312691601113 0.0153340509658 0.0218575292882 -0.00756825846746 0.00420648679285 -0.0142983750067
及 -0.0166614895776 0.0158915085653 -0.0129207641778 0.00493996260006 0.0227043925697 0.00886022656061 0.0172081509039 -0.00823353383263 0.0186248439369 -0.00331407499572
书 -0.0100984980338 0.00705604727384 -0.00483957077529 0.00366930207266 0.0353527533864 0.00685144161913 0.0219911893828 -0.0205252179526 0.00949271446324 -0.00114421655907
治 -0.00828921247325 0.0118107691341 -0.0215685927567 0.0116951086727 0.0340059203525 0.00790208388877 0.0108063923131 -0.012871821982 0.0209644583784 0.00220607513249
院 -0.0104104590448 0.0110288061949 -0.0168515276433 0.0108903695253 0.0282250139228 0.00795409110413 0.017769448745 -0.0197070636776 0.00631283425017 -0.0074551880125
界 -0.00352670834106 0.0179382948677 -0.0214629919538 -0.006880306216 0.0234109257437 0.0122015561632 0.0276645163938 -0.00585352996777 0.0112019248592 -0.00280805312525
结 -0.00214612245288 0.0194635123737 -0.0105171227278 -0.00542629721045 0.0243815917168 0.0232309222057 0.0163695291623 -0.00832940426984 0.017466307805 -0.00927469553521
交 -0.012379751638 0.0168022746109 -0.0101367185454 0.00355631629804 0.0232903886812 0.0218330580179 0.0224474844426 -0.00744621155297 0.010515562996 -0.0118575625469
联 -0.014525761923 0.0151681836498 -0.00464390585663 -0.00361471342527 0.0218444697178 0.0157441545363 0.020098063798 -0.0153040405197 0.0191377266366 0.00225419613078
量 -0.0125843030467 0.0188327978368 -0.00757218746298 0.00338742811939 0.0247665476163 0.0182869083746 0.0247032198335 -0.00780028473331 0.00503424121477 0.00142710176285
达 -0.00917519117531 0.00272961645455 -0.0140876856058 0.00699778642521 0.0232442790295 0.0220595717902 0.0172480701223 -0.0160518441292 0.0176732071107 -0.00454119957785
程 -0.00647618601563 0.0185095389872 -0.00779370441168 0.000925490808878 0.0163339582562 0.0144723071915 0.0267886203231 -0.0145101791613 0.01959725688 -0.00553379285721
如 -0.0053255251997 0.0166002719012 -0.00729973122022 -0.006362708437 0.0282702846625 0.00508591843911 0.0190092947989 -0.00972757483955 0.00842089358319 -0.00957259404106
收 -0.00711540028176 0.00657208514949 -0.0031643896714 0.00974900826743 0.0280327798896 0.01318035477 0.0176021128956 -0.0148531770734 0.0207611787022 -0.0109419914077
司 -0.00842124800012 0.00538013346881 -0.0127100457582 -0.00393564706449 0.0297640608317 0.0121842246306 0.020701180176 -0.0187033665886 0.00714231321195 0.00300384568954
东 -0.0176715712956 0.00520491748287 -0.00796213313751 0.00480479092919 0.0289703680814 0.0206603839811 0.010772625019 -0.0167518346697 0.00929256052707 -0.0150561778041
性 -0.0180149014041 0.00651098351364 -0.0110625643333 -0.00229965069352 0.030238711057 0.00862372824728 0.0266622242149 -0.00281680027449 0.00997022626657 -0.0107188429084
际 -0.0119179714265 0.014958387461 -0.0130907438803 -0.000708609650149 0.0175136188768 0.0114387159942 0.0241093799107 -0.0151914718414 0.00580686522595 -0.00894124738464
村 -0.0130599657071 0.00474904431855 -0.0142302021546 0.010291331527 0.0202691596461 0.0105117940364 0.0282264682744 -0.00866191978788 0.0121413429288 -0.000198843594493
然 -0.0187445336271 0.0136108428025 -0.0201200267402 -0.00244830844588 0.019958801003 0.0117674289464 0.0192347201415 -0.00562399259855 0.00815964270068 -0.00684593874997
义 -0.00510714321399 0.0203193840706 -0.00754320675713 -0.00143675746196 0.0265724700583 0.00821934410364 0.0150208405295 -0.0158107396588 0.0176637585024 -0.00568485696046
局 -0.00278803216982 0.0193779820062 -0.020904739176 0.00395885167182 0.0265909010668 0.0223074429816 0.0102244059107 -0.0126749628668 0.00608582646255 -0.0145926967312
取 -0.0100930717557 0.019935666432 -0.00773103936994 -0.00630073192748 0.0259918141904 0.00596816923254 0.0172913601106 -0.0212635612983 0.00784618964052 -0.00967909998883
据 -0.013019894322 0.0198268775132 -0.0124707899198 0.0099398104311 0.0139286979193 0.0161764787122 0.00738929890235 -0.0118329357701 -0.000119949073858 0.00144823883885
把 -0.00349583079553 0.0063700573317 -0.00501207464608 0.00829020934281 0.0266212537699 0.0240451868756 0.0193151466792 -0.017639985375 0.00612692033653 -0.00387407582511
因 -0.0182732426022 0.0110194102628 -0.00635452741057 0.00842621130541 0.014323125049 0.0165688398626 0.0212297371296 -0.0102446972967 0.0118569561868 -0.013090847249
调 -0.00889146935164 0.0110017425896 -0.00487119653054 -0.000907514008959 0.0270405270326 0.0122381081661 0.027904884975 -0.0189713509129 0.00411027075618 -0.00100399275099
办 -0.0103736012947 0.0123124769296 -0.0189861848316 0.0110915006494 0.0274895300809 0.0132632583778 0.00658597059873 -0.0132568376093 0.0192831633369 -0.00115114115455
二 -0.0175301303439 0.0126192760458 -0.00273879951022 0.00323626988845 0.0161254944938 0.0161979442448 0.0157821932802 -0.0217949751882 0.0104169298966 -0.00485619814348
革 -0.0201413552313 0.0139200536856 -0.0115514969844 0.00830851444514 0.0231580792565 0.0143869853859 0.0243820942622 -0.00575643577022 0.00958426017208 -0.0037919561673
计 -0.00800994980341 0.00545064338556 -0.00719817898716 0.00042975872448 0.0311574965563 0.0143298819451 0.0261762103695 -0.0107528018006 0.00732635112326 -0.00329642673797
但 -0.00353260043287 0.0077051101614 -0.00637779954867 0.00467076988187 0.0334692808535 0.00873499327711 0.01240283303 -0.0170578052395 0.00712300150993 -0.000742090038607
相 -0.00397224685778 0.0142004007337 -0.0151671398433 0.00936599449054 0.0297629352079 0.0117011565248 0.0195089449361 -0.011107369136 0.00563586976441 -0.00912177129691
论 -0.0130158225948 0.00537067743958 -0.00236053313385 0.00942842052776 0.0211518858529 0.00913553042884 0.0261454866367 -0.0173670919273 0.0116182475084 -0.0139506138806
求 -0.0131659964936 0.0107022102863 -0.00464891364037 0.00333306242838 0.0237927722226 0.0188222559689 0.01831488149 -0.00975875589869 0.0145124480101 -0.0113875606842
团 -0.00583974514638 0.0119773939622 -0.0169501870509 0.011785389698 0.0189498601942 0.014137562711 0.0253765557644 -0.0118954942655 0.00320738318747 0.00106779529816
职 -0.0115799998466 0.0201671480353 -0.00207897520541 0.00919334408554 0.0173491935844 0.0160085887884 0.02585122587 -0.0106286482031 0.00930636618787 -0.0143478181937
近 -0.00671727268099 0.0203342521722 -0.0169208499321 -0.0011086150745 0.0251412739603 0.00510801146249 0.0118951428325 -0.0152508761617 0.00742609969802 -0.0077488587461
斯 -0.0110362898476 0.0223059961825 -0.00250477672046 -0.00442250398456 0.032163455624 0.00474806297269 0.0198242659854 -0.0198344072559 0.00920254057335 -0.00089182035483
先 -0.0106937894165 0.0174950703171 -0.00587258479212 0.0110565835374 0.0223173517305 0.0176757770171 0.0137884364061 -0.0147798125479 0.00846681321159 -0.00681159772802
信 -0.0175440731259 0.0124544436878 -0.0187410823806 0.0100752332797 0.014477287315 0.0114753763699 0.0141272412181 -0.0192602117039 0.0167243052545 -0.00121318386583
规 -0.017714624085 0.0157730020484 -0.00604935804427 0.00799788078411 0.016955649657 0.0172335212618 0.0242111898628 -0.00640550717539 0.0123197612746 -0.0066810778381
路 -0.000219854702521 0.0179426825217 -0.009337952863 -0.00095722987852 0.0296203881669 0.0113482731211 0.0101235998193 -0.013054878864 0.0182325960737 -0.00641732438955
广 -0.0183051459674 0.0129592201132 0.000237316589559 0.00834211577456 0.0229445913108 0.0194242557623 0.0225546923677 -0.0111522389413 0.0117737451992 -0.00031190161737
认 -0.00271513854531 0.00294602772655 -0.00512933681092 0.00118405003392 0.0254112377191 0.0172426588793 0.0185189088027 -0.0188836937459 0.00901437943183 -0.0136235590239
受 -0.00557885436314 0.0208014754652 -0.00454354522779 0.000168637534339 0.0240936588272 0.00816655713028 0.0186853268449 -0.0159883106793 0.0154207383066 -0.0100313365822
处 0.000925519670042 0.0136619829628 -0.0177813633597 -0.00763685168328 0.0296165793433 0.00504914364997 0.0121587175909 -0.0163215582191 0.0179315215938 -0.0017155729892
无 -0.00858390777188 0.0126587423214 -0.0131919037851 0.00441593301747 0.0203635592907 0.00578903331819 0.0202293018903 -0.0138657555873 0.0158058987577 -0.00688371702549
项 -0.00793240325698 0.0152215182283 -0.00991763144145 0.0111347147845 0.0240647617929 0.0164812852876 0.0237442481141 -0.0122345157373 0.0105300190437 -0.000507305660564
山 -0.00360641956237 0.0185174580886 -0.0121494253842 -0.00221514659719 0.0260661091595 0.0153575881254 0.00825422297057 -0.00777736547319 0.0131141319643 -0.00708236495424
物 -0.0114792282659 0.0143630241372 -0.012013502198 0.00752654090039 0.0144457805187 0.0116818959086 0.0161959033072 -0.010814202335 0.0171571486885 -0.0141044694528
众 -0.0155220234559 0.014259510231 -0.00501803342116 0.00407283911895 0.0304647482967 0.0111427191378 0.00960172618647 -0.00760462222075 0.0121368801086 -0.00310588335538
放 -0.00942338717114 0.0215568026656 -0.0188120091063 -0.00593689695332 0.0177287861024 0.00818542631282 0.0213980858071 -0.0110692725611 0.00660048100631 -0.00604621260653
步 -0.0116002760729 0.0129311421407 -0.00631687560302 0.00208681495061 0.0317657280367 0.00781083675413 0.0216426400678 -0.00796883142646 0.00625731610837 -0.006970883513
指 -0.00705561353995 0.00502660826926 -0.00518045648454 -0.00615901421238 0.0303578253908 0.0109325212327 0.0139802942578 -0.0193515022621 0.00911384026196 -0.00192617097691
育 -0.0185235626737 0.00899633321962 -0.0049517231016 0.00548500492474 0.0187585927392 0.00648883376299 0.0276219185909 -0.0177771102304 0.00554745408434 0.00429764881792
手 -0.0121491675096 0.00361632962968 -0.0101209758895 0.000881030938447 0.0292526862527 0.00379688224525 0.00836819275394 -0.018932829992 0.0177503445831 -0.0059198881713
集 -0.0172384170423 0.0145247025869 -0.0107081676409 -0.00342482953869 0.0261296342825 0.00985794732883 0.0141644545559 -0.0129637008134 0.00759622538096 -0.011142163388
风 -0.00276516280382 0.00657797582819 -0.0157525866814 0.000404875171076 0.0209843007772 0.00782985930813 0.0253943247982 -0.0168279345052 0.00428540871218 -0.00519876593237
更 -0.0177108339342 0.010039280792 -0.00382425412768 -0.000147661890157 0.0268570426806 0.0134411642742 0.0121766313203 -0.0101647167566 0.0187703919147 -0.0137945576007
看 -0.00551244629878 0.0169665361132 -0.00452295571156 -0.00532291467129 0.0211099855569 0.0173287335076 0.0105060839229 -0.00886106007015 0.019204004496 -0.00686883337599
想 -0.00991360026959 0.00635178208189 -0.019472449679 -0.00407970705513 0.0298870372364 0.0182660698333 0.0116062953585 -0.00189486998822 0.00718502830876 -0.00880304413798
商 -0.0167512599225 0.0200948242372 -0.00131311492006 -0.0010092561108 0.0271429653982 0.00921381555445 0.0106623468385 -0.0147967052351 0.0122129915864 -0.0128983479454
亚 -0.00219993176636 0.010678994816 -0.0148630131624 0.00394540986688 0.0262534088368 0.00750026073498 0.0203715184728 -0.0124337268114 0.019112995891 0.000547244530484
研 -0.0128768041482 0.00255628390436 -0.00796798341897 -0.00366483995819 0.0156628620626 0.0211385132881 0.0283872841783 -0.0172706376994 0.00746878736836 -0.0119625721905
口 -0.00830194432292 0.0167630488086 -0.00415621511649 0.0086736941668 0.012558875618 0.0142455648501 0.0225872492701 -0.0138093088685 0.012273876251 -0.00622297926566
投 -0.0140257257604 0.0211560196036 -0.0138982405502 -0.00546499102165 0.0203401821625 0.0111102786836 0.0231919650249 -0.00349102473896 0.0173035794023 0.00327165082239
常 -0.0102652656824 0.0164847418864 -0.0145379739585 -0.00614397029692 0.0203294946228 0.0163795190892 0.0138723780451 -0.00530424628924 0.0168519324593 -0.0114830615975
克 -0.0123366789616 0.0178341566444 -0.0150898536116 -0.000997830087908 0.0185519077876 0.0174464641816 0.00811438244619 -0.0199962822098 0.0119235750804 -0.00698592702711
原 -0.00769335774736 0.00828617821863 -0.00336020730887 0.00762428162182 0.0158635708178 0.0188388217942 0.0287863365015 -0.00442407221598 0.0164866710252 -0.013219278423
深 -0.00728784812327 0.00692412520049 -0.000357487177856 0.00645226189029 0.0234064458613 0.0152823323215 0.0155707217269 -0.0138462879367 0.0187122337515 -0.00834910585961
级 -0.0175035297924 0.00812653783826 -0.00353849568985 0.00504337103667 0.0287156917549 0.00278914865929 0.023756784293 -0.0133649056599 0.00892594674375 -0.00597179652379
支 -0.018733801183 0.00870355402103 -0.00739757563821 -0.00685079586351 0.0188390560459 0.00465629804749 0.0278212828057 -0.0118691997472 0.00599744829013 -0.000751254925133
形 -0.00138415567822 0.0217959809535 -0.003428382867 -0.00721675499564 0.0266109861114 0.00858478542462 0.021226189992 -0.0171035167947 0.00516944715131 -0.00693114909018
举 -0.00690057380075 0.0180920814033 -0.0166644058483 -0.00221080100501 0.0228045544368 0.0116517083359 0.019255206827 -0.00536499238656 0.0127882394329 -0.00386327909714
件 -0.0139037288633 0.0161787934873 -0.00754111398538 -0.00517964290899 0.0250642865408 0.0193102838575 0.0121124823161 -0.0143570830766 0.000839584778031 -0.0012328190677
流 -0.000316244834436 0.00464598511978 -0.0107665488752 -0.00561490444564 0.0133959908257 0.015390338995 0.0253095683723 -0.0154150426309 0.0183328006709 -0.012901984541
志 -0.0175474476148 0.023303274312 -0.0135100321836 0.00529879935221 0.0200759674102 0.0084974617592 0.0145395642717 -0.00780163754572 0.00688505212151 8.867652673e-05
没 -0.0131329020611 0.0186939111901 -0.0140013398287 -0.00220267537675 0.0159573418845 0.0086216881528 0.0186395899575 -0.00674105852365 0.0106604280666 0.00369408498559
少 -0.00858201246749 0.00244889504975 -0.0121690188115 0.00608969668711 0.0171688431333 0.0160519867232 0.0180031087278 -0.0214145829534 0.0161794404064 -0.0041301970238
至 -0.0164213588131 0.00952973861418 -0.0131227655809 0.00953107949604 0.014832004197 0.019118616266 0.0160295634986 -0.0138293914891 0.015202123449 -0.00054763358267
拉 -0.0105626398648 0.0140000104977 -0.0044879097801 0.00933341522945 0.0280635834712 0.00497122877493 0.0237319236087 -0.0203322253886 0.00439402038278 -0.00264535204244
施 -0.0174732753424 0.0142734506575 -0.014720349903 0.00100678485487 0.0196254104808 0.00393745749784 0.0186045855542 -0.0034600645506 0.0134876492283 -0.00942711224876
赛 0.0015352870715 0.00730928634201 -0.00467830632596 0.00452566534214 0.0271197188127 0.0178243761758 0.00752158905002 -0.0180104731504 0.0149550759022 0.00380056330954
被 -0.00966906621382 0.0164267446379 -0.0190197181736 -0.00318481839289 0.0170957816893 0.0148629677278 0.0127700029104 -0.0211566958386 0.00721182718809 -0.00220718644839
城 -0.00944823362184 0.0103541354226 -0.00557331109059 -0.00177345604473 0.0211915586582 0.0151851437324 0.0203024631026 -0.0151802894832 0.00568366832975 -0.00600037076451
条 -0.0139530847476 0.00934002939166 -0.00553586108125 0.0109421364361 0.0272390951405 0.00990394559124 0.0192856210191 -0.00691797419524 0.00872709835472 -0.00787659856396
又 -0.0142751933634 0.0136534684385 -0.00109389255678 -0.00202385578621 0.022545066859 0.011374359295 0.0190637028558 -0.0107688727117 0.0129806272582 -0.00588759219094
难 -0.0164661089104 0.0115086073092 -0.0101806854276 -0.00274910053653 0.0277019247222 0.00833640306867 0.00677301638143 -0.0130532761985 0.00804851088431 0.00253658138725
果 -0.00647430629134 0.00961045278285 -0.00696273499661 -0.00196090178335 0.0263246949385 0.00752432081023 0.0145865717962 -0.0123692178888 0.0225136507184 -0.00696137789821
车 -0.00153602602734 0.0167746840744 -0.00618561997519 0.0117251931313 0.0266783494009 0.00650307267411 0.0222686147083 -0.00714631531801 0.00776985607949 -0.0132316144058
老 -0.0119046294101 0.0141885431557 -0.0119041117032 0.0114744533746 0.0193401213111 0.00789407791832 0.013730166321 -0.00579194585657 0.0165304364606 -0.010416886319
式 -0.0155364649057 0.0178934789277 -0.0174103833481 0.0101973358507 0.0231177314105 0.00770131123159 0.0119402154921 -0.0122704384182 0.0190982266301 -0.0106066002486
参 -0.00221817673554 0.0179819087483 -0.0204388509051 0.00395598543061 0.025885464683 0.00732249790418 0.0163193613325 -0.0143127942909 0.00297988492002 -0.0127133275512
造 -0.015876686825 0.00912915708361 -0.00538302221188 0.00886739133214 0.0151502077758 0.0167313162876 0.0208293678524 -0.00406113202924 0.0197715372361 -0.0125521976075
接 -0.0149774411713 0.0142036304474 -0.0141491185883 -0.00433330116648 0.0234193340528 0.0171731469191 0.00905574394514 -0.00177969583138 0.0147696251006 -0.00161485703667
精 -0.00967870681967 0.015085953034 -0.0160183610661 0.0049458514194 0.0208295447975 0.00754723522192 0.0188840652345 -0.00982904554553 0.014840308182 0.00309686278976
只 -0.00729649317448 0.00583276693516 -0.0179783164791 -0.00576813111419 0.0181002831574 0.0151299557089 0.0260111997226 -0.00520030951521 0.00961536890238 -0.00455831387385
专 -0.00486083491888 0.00972999461453 -0.0102590041824 -0.00389456942936 0.0251461408684 0.00741179079499 0.0196853867107 -0.0160776284134 0.0111292673187 -0.0110968608865
群 -0.0163817438631 0.00682969515891 -0.0153931875793 0.00689644517284 0.0257142593828 0.0132054693947 0.00903871616936 -0.0103352444737 0.00194761312725 -0.0145881493008
运 -0.0104157126059 0.00417677331328 -0.00648509101418 0.0103799783412 0.0220870136027 0.0147947312539 0.0231168228444 -0.00685179152463 0.0101389656847 -0.00215346836783
质 -0.00541478552953 0.0135008894581 -0.00826211138336 0.0061833934696 0.0261262386403 0.00650429379782 0.0181203338581 -0.0124030620891 0.0161051890185 -0.0115062795616
服 -0.0090335766265 0.0126921438478 -0.0160423951345 0.000557383737896 0.0164536400445 0.0105327059172 0.0149599076031 -0.0124749530756 0.0139847446228 -0.0128493681352
县 -0.0181769722783 0.00960716539146 -0.00201218594427 -0.00213365160183 0.0148019785568 0.0199746822238 0.0104607211893 -0.0139670634273 0.0148264321595 -0.00971448040177
做 -0.015920992963 0.0109620418193 -0.00600065902129 0.0106715159316 0.0154668646016 0.00675877967332 0.0288965002057 -0.0116844708353 0.0130371932194 0.000409754979978
灾 -0.0153350413489 -0.00214104769377 0.00242355924865 0.00806472754416 0.0193220662283 0.000844701827856 0.0111350438687 0.000807126960811 0.0157307935651 -0.013108816981
费 -0.00341871345418 0.000592933539696 0.000194890204306 0.000519595137351 0.0293350405247 0.00808417450579 0.0119097836049 -0.014571300916 0.0142985669646 -0.0105884261336
几 -0.00205361150036 0.0134500522128 -0.000961691100512 0.0118417057493 0.0158005963164 0.0210171492449 0.00858335706841 -0.0212205673575 0.0194519854395 0.00390740238223
织 -0.0157545822048 0.00952785742806 -0.00979651674574 0.00943315736171 0.0229369608648 0.0164458768214 0.0160260798928 -0.00819058113865 0.0146221812027 -6.96900826875e-05
观 -0.0188500961434 0.00323357257935 -0.0127065156744 -0.00639873003189 0.0190256574352 0.00921046626456 0.0253423096228 -0.0101963412785 0.0143544484977 0.00274493392584
样 -0.0103462114583 0.00166144869032 -0.0144422789394 0.00847176389167 0.0298123366002 0.00885384972576 0.0133426594709 -0.00330037911491 0.00754922713161 -0.00210889808994
央 -0.0141628149573 0.00359443058285 -0.01078580287 0.010462769831 0.0248506328715 0.00647368559753 0.0214988956905 -0.00733475298763 0.0073301373529 -0.00397636227601
别 -0.00619027741184 0.00543813304486 -0.00156878865904 0.00143523666661 0.0326294508307 0.00633529185716 0.0180411909312 -0.0192411904664 0.00134482539798 -0.0105567821836
见 -0.010676426797 0.00973164419997 -0.0020019689985 0.00485425044468 0.01954599216 0.021001487723 0.0188933744947 -0.0147578240862 0.013853056024 -0.00503535901858
五 -0.00123484258076 0.0187659425752 -0.0124263234576 0.00336318793585 0.01610278534 0.013774961113 0.0263018065973 -0.00470628168367 0.00742761253911 -0.0129749021576
数 0.000614497487759 0.00844908200055 -0.0137173552374 -0.00159850658757 0.0200721823384 0.0200948280903 0.0258614668296 -0.015070201625 0.00687677178166 -0.00459429819311
示 -0.0203350857396 0.00673976994809 -0.00301335634119 -0.00670152372295 0.0172063869244 0.0119967449848 0.0246851899557 -0.018129410889 0.00830778011308 -0.00975082085093
协 -0.00328603335326 0.00749136597622 -0.0106301339166 0.0124885589233 0.0292650584368 0.0101097543926 0.0250190692625 -0.00452248372614 0.0095529325071 -0.00171853117854
四 -0.0152321217011 0.0163878099138 -0.0155613058834 -0.000918846558101 0.0171094405728 0.00411912263333 0.0158656668095 -0.00762694473715 0.0121399249829 -0.00675111352164
给 -0.00813507410623 0.017567837513 -0.00390692240971 0.00647495708032 0.022480724338 0.0151183638928 0.00899795252194 -0.0121713729529 0.0175606404604 -0.00299333893983
选 -0.00176699130505 0.00836833913573 -0.0196834702706 0.00503558178734 0.0168812781017 0.0190228212214 0.0150036262251 -0.0127036060483 0.0181610489153 -0.00017220452529
格 -0.00970807569358 0.0216136785105 -0.0107488623344 -0.00193632828617 0.0191321484862 0.0172451942199 0.0171744652057 -0.014141564085 0.00152685002966 -0.00919694417079
创 -0.00461671160288 0.0203632521907 -0.00814567303145 -0.00677395363275 0.017877758649 0.0110659597384 0.0211747944509 -0.00681346400769 0.0110238199872 -0.0105894393464
洪 -0.00361196904021 0.0144519443579 -0.000858540584502 0.00825897081145 0.0055999466261 -0.000977428258235 0.0102635431238 -0.00263388418182 0.0149161753331 -0.00531238664907
尔 -0.0111738568977 0.0109013746839 -0.00539387866597 0.00359387136101 0.0244185511188 0.00817049106486 0.0231333557746 -0.0168779895322 0.00583278903617 0.000855574200034
查 -0.0113363126619 0.013386513721 -0.0132684321106 -0.00414228464717 0.0153312126026 0.0179340633617 0.0145422282301 -0.0158951018147 0.00577282105601 -0.0144275349084
防 -0.00355235533628 0.00542535809074 -0.00756369310518 -0.00739713035731 0.0274508646588 0.00501887535788 0.00646642635134 -0.0150973982898 0.0182520243411 -0.00957507307032
林 -0.00789655462836 0.00833571169476 -0.0129195834769 0.0106277539558 0.0250621001833 0.0155263850706 0.0158447734694 -0.00388129515154 0.00835821968827 -0.00516770544421
很 -0.0111194008789 0.00848158471042 -0.00375837968598 -0.00219099670458 0.0199448543882 0.00897185026093 0.0269889498557 -0.00878997650689 0.0111140812015 -0.0157689605436
那 0.00142298310527 0.00308361327659 -0.00193830931704 0.0073899919867 0.0279397737114 0.0158894181435 0.0120192370289 -0.0155205768859 0.0067266787286 -0.0105193129997
思 -0.00587764880244 0.0191309030258 -0.00841545564915 -0.00370678779399 0.0147978532115 0.0145442105866 0.0184908767062 -0.0191593345302 0.00901415098756 -0.00480139100563
知 -0.00575341081894 0.00983580495385 0.000125113169193 -0.00709534690747 0.022714633399 0.0188216494109 0.0103612845034 -0.0164020151878 0.0147192736931 -0.00487584207144
标 -0.00220512611139 0.0165967641229 -0.00485647821088 -0.00684193556802 0.0213350258271 0.0189076591186 0.020719582846 -0.00869959533653 0.0122425106404 -0.00239142499694
价 -0.00925233018365 0.00567110233933 -0.00744653016478 0.00678227769188 0.0174868245117 0.0146973837705 0.0168865673023 -0.0144468865643 0.0105627687132 -0.01376043696
话 -0.0156963027154 0.00298261198226 -0.0160258058327 0.00927227655843 0.011793888685 0.010016556088 0.022883686911 -0.0193885335818 0.00481297407704 -0.000456040073881
再 -0.00601720663552 0.0123569223628 -0.0164195467486 0.00789488780846 0.0139528657649 0.00418078883157 0.0226010031857 -0.0140784074607 0.00645782301659 -0.00937215078101
纪 -0.0134561609253 0.00919714302509 -0.0070354162852 -0.00271914516486 0.0201796303695 0.0182494710846 0.0268686647517 -0.0106128227443 0.00347996519137 -0.00471100757272
头 -0.0077804383453 0.00968337445096 -0.00489904843538 0.00829120019556 0.0267847433661 0.00642721547564 0.0239693564591 -0.00554838374617 0.00695164269105 0.00324181559034
变 -0.00495059819422 0.00893533139206 -0.0092065607871 -0.00133255083601 0.0164814803842 0.0196210169486 0.0227988239399 -0.0109731960239 0.00471323827351 -0.00822235782436
历 -0.00155166825098 0.00446874920986 -0.0190031456228 -0.00398073738022 0.0162247286491 0.0170625887935 0.0200444463417 -0.0211729907583 0.000666443190089 -0.0037187110295
首 -0.0090019393689 0.00700192648718 -0.0107037587879 -0.00243440531604 0.0240945457868 0.0130223253282 0.0141454975239 -0.00566066516808 0.0226238130851 -0.00750689827355
回 -0.011984746035 0.0183378615268 -0.00166459710813 0.00629457381164 0.0168931802877 0.00767339293854 0.0194244791341 -0.00897372291534 0.0116367675937 -0.00285559771233
严 -0.0044678979313 0.00305228138873 -0.0119508166775 -0.00452504829739 0.0160023073692 0.00542537413185 0.0167658021153 -0.0207970300739 0.019211241032 -0.00458913978292
张 -0.0162048384898 0.0132582382 -0.012590740769 -0.00598801007378 0.0247842700672 0.00383180762792 0.00649450941888 -0.0183138861696 0.0130361216861 -0.00124049656739
确 -0.0202102056486 0.00715793818196 -0.00744592970915 -0.00448701360477 0.0256707940795 0.00747802755179 0.0182190566022 -0.00605946975451 0.00788210577729 -0.00194349140592
马 -0.00903488913944 0.00197898181265 -0.0113972880147 0.00873354585765 0.0282773009277 0.0170655968233 0.00822744915516 -0.0131993206657 0.0155401451812 -0.00330304884971
权 -0.0025997941707 0.0154380892271 -0.0174783759567 -0.00117945733186 0.0185323210046 0.0190784093445 0.0230225259642 -0.0119199200167 0.0011781313629 -0.00634663395106
台 -0.0066555139108 0.017422014616 -0.0122564664355 -0.00195693847468 0.0203253383999 0.00964579724163 0.00814220311959 -0.0165285716716 0.00824015277456 0.00133477998895
效 -0.004488628362 0.021783443726 -0.0134156704786 0.000219434081342 0.0135147624927 0.0192967233226 0.0216123616821 -0.00746625318704 0.0107995390517 0.00284473448974
争 -0.0198264729298 0.00538588461777 -0.0142168121951 -0.00560571652201 0.0167878819372 0.0146910578773 0.0142822131353 -0.0111044541932 0.0206163373782 0.000671573875721
推 -0.016409372281 0.00594025386897 -0.00362974331571 0.0125305043131 0.0244478239866 0.0137956063558 0.0142481903526 -0.0104952770738 0.0114414881414 -0.000286241446517
识 -0.00759853053681 0.00207815385912 -0.013334785385 0.00842866231064 0.0251342699959 0.0142275161 0.0204839499634 -0.00971360531927 0.0131721477012 -0.00255130171121
积 -0.00844788770611 0.016267988771 -0.0126382151547 0.00160211724539 0.0193482189365 0.00593349740359 0.0132936984972 -0.0204571216632 0.00698520507613 -0.00720202934445
百 -0.0167776579074 0.00532291977015 -0.014584432253 -0.00326631535552 0.0178332072431 0.00413403984981 0.0211230104392 -0.0143240031697 0.00244129605745 -0.0029986530558
势 -0.0164739383251 0.00385564639057 -0.0179180585089 0.000982642792193 0.0278836750621 0.015658367223 0.00928134642254 -0.0071898499128 0.00824233800676 -0.00203247364569
究 -0.0173800335058 0.00791116819129 -0.0187230875735 0.00831223764058 0.0130998753097 0.0137741087 0.0109404030635 -0.0178474726534 0.0177760543292 -0.0025213583953
极 -0.00196119642155 0.00820322090977 -0.00411983473175 0.0111206796609 0.0207292161481 0.0203824695658 0.0148825045477 -0.0158565039658 0.0207656637737 0.00362794464291
传 -0.0120222746113 0.0149378363921 -0.0105012693091 0.0112818176313 0.0226783127649 0.0164832628457 0.0140305146941 -0.0125270520781 0.00157426925186 -0.00315229930962
气 -0.00509342187145 0.0158170206716 -0.0159342153828 0.00293055299356 0.0196821066201 0.00541842844365 0.0175880255027 -0.015493602579 0.0105515313515 -0.0108315487395
神 -0.000554009667291 0.00763687425434 -0.00725578161149 -0.00534248767091 0.0230792451317 0.00653782196264 0.0253860502797 -0.0131729307518 0.0119881218746 -0.0105073523953
反 -0.00258237032681 0.01837760679 -0.0156745746373 0.0105014413588 0.0143431398842 0.0176098892617 0.0176915343295 -0.0059063358228 0.010461571017 -0.0141182781528
史 -0.0142543046236 0.020887872419 -0.0130488851741 -0.00455721042521 0.0270724570943 0.0022850817618 0.00803517729156 -0.015442339968 0.000954076028352 0.00500471754149
视 -0.00532033169233 0.0117714947491 -0.00412494644915 0.00544029252189 0.015213787571 0.00610468643921 0.0245658638499 -0.0150532643709 0.00943584779327 -0.00724861908947
走 -0.0175429536822 0.0149533104234 -0.00882237138094 0.00560850915005 0.01617664528 0.00924270515394 0.0103174810597 -0.0126782341495 0.0129950460483 0.0039880427095
真 -0.00524208694237 0.0111287815633 -0.011018181953 -0.00580564152093 0.0197726357288 0.00408993381786 0.0176425168422 -0.00638210843542 0.0184935664683 -0.0087291427217
证 -0.0114585863995 0.00528650474394 -0.00290144752698 0.00873545119734 0.0277600180239 0.00318423959867 0.0187803098524 -0.0174128458723 0.00312894076729 0.000417347191809
每 -0.0162958103691 0.0130863390864 -0.0111335091697 -0.00327922752239 0.0247327732369 0.00464918241983 0.00979530992649 -0.00600836322191 0.0103496463908 0.00228955660102
身 -0.00752744979841 0.00820792653982 -0.0123767554291 -0.00647016237648 0.0142819745051 0.0118425077787 0.0195966828772 -0.00881098600373 0.0137160578987 -0.0110522105357
整 -0.00501572506739 0.0157690927594 -0.0130103369196 -0.00385418114909 0.0205586244671 0.0146385776013 0.00741232744689 -0.0118171619897 0.0101593095689 -0.00573886732536
责 -0.00576371238765 0.00993715313233 -0.00371625423801 0.00894682797815 0.0263807938091 0.0125276692444 0.0175745933199 -0.0114745638887 -6.7162898625e-05 -0.00851672429923
续 -0.0166460660082 0.00865420602393 -0.00197395919109 0.00408028553087 0.0224337442268 0.0039025001532 0.0104450968067 -0.0169442834617 0.0159393463892 -0.00877962685306
单 -0.00740331860773 0.00361401586624 -0.0170669036994 -0.000925125883748 0.0170529551682 0.00763136510001 0.0182798312359 -0.0147510836724 0.0151842518144 -0.0128984179282
副 -0.0120492885386 0.0138219690248 -0.0076263289919 -0.00561628592529 0.0188600204823 0.00699017486969 0.0186229072739 -0.0180741307652 0.0130311286728 -0.0056355498515
亿 -0.0132179665974 0.0153295339138 -0.0155314262716 -0.00529559887814 0.0100094975327 0.0182177105979 0.0152724766608 -0.0105745081045 0.00145835994886 -0.0124647832216
营 -0.0132954145566 0.0124798188799 -0.00706117183201 0.00223559986983 0.0298712758997 0.0102279122046 0.00911847804114 -0.0142459312183 0.00304585526757 -0.0090179817743
益 0.000176883227938 0.0188933533157 -0.0156921327346 -6.6903953506e-05 0.0211003894511 0.0173960112312 0.00854098422533 -0.0214996647257 0.00329884937419 -0.0027224978358
才 -0.0090713203415 0.0160338458055 -0.0123413685037 0.00139748415858 0.0212853673213 0.0102933188962 0.0100030130336 -0.0162151628181 0.00908127812459 -0.0111797799148
转 -0.000548972955517 0.0122904406021 -0.0167463029189 0.00663772851943 0.0141741005569 0.0172281896412 0.0166187303843 -0.0193078237659 0.00143501291586 0.00461348955323
险 -0.0108300868481 0.0168024914367 -0.00704713889664 0.001584164375 0.00674858762681 0.0170168640986 0.0165111519851 -0.00788752288434 -0.000287575285561 -0.00989744173758
李 -0.0102769566721 0.00910290322649 -0.00847821552002 -0.00624486647105 0.0131406809188 0.0123311823205 0.00807791373298 -0.0204152940357 0.00808383715096 -0.0139218748944
坚 -0.0117521515997 0.00651195598719 -0.0166676267965 0.000280987068545 0.0145492196135 0.00902357402207 0.0163040860085 -0.00560315307067 0.0193716320934 -0.00897939285601
席 -0.0154956832907 0.0156127013121 -0.0196727267459 -0.000325333707544 0.0182143977362 0.0122509991168 0.0138217747264 -0.0134264390012 0.0158344757855 0.00334026870927
该 -0.0142155539729 0.00425927874928 -0.000114873115773 0.00909239644525 0.0214290061431 0.0171927206958 0.00933810723333 -0.00299958305278 0.0165023956902 -0.00950127535495
感 -0.00743228621053 0.0183063688718 -0.00489658004216 0.00508013810942 0.0197195493057 0.00535681653625 0.0241506836158 -0.0108831731495 0.00506585665475 0.000163364722783
款 -0.00669980184892 0.00792300188713 -0.0138599522135 -0.00340613357396 0.0128210766271 0.0138094710576 0.0170212706786 -0.0169706135059 0.00141348258319 -0.0144389560264
己 -0.00607826289221 0.00733206709862 -0.0165758208906 -0.00722522814688 0.018737725618 0.0213227369488 0.0151842758025 -0.00488714564039 0.00553845988043 -0.0109426808251
德 -0.000120363928941 0.0080010488781 -0.0128909802817 0.0057143533622 0.00899528272514 0.0173379152695 0.0210230957656 -0.0177888959262 0.0144737629001 0.00495722874085
乡 -0.00898673327996 0.0123723908507 -0.00617472780586 -0.00243731825271 0.0238732591965 0.0107499339382 0.0147959120828 -0.00339339206354 0.0159892105898 0.00378784630711
周 -0.002958884727 0.00299088187153 -0.00841659962043 0.00612078577423 0.0261159373554 0.00791965659215 0.0165963752021 -0.0214139229006 0.00289340267488 -0.00421426066385
必 -0.00936655327906 0.00757499452417 -0.0130422312828 0.00192218317641 0.0160423671714 0.00692971080913 0.022986489731 -0.00432430006038 0.0154628587691 -0.0135858157058
构 -0.00401964944154 0.0113785308859 -0.0197592592662 0.00455323385336 0.0189683701642 0.0114563775463 0.0157685478357 -0.0104510183096 0.0104272027648 -0.013567384698
完 -0.0156434564816 0.0122240632064 -0.00525483886033 -0.00740151895003 0.0255372897643 0.00497033447105 0.020629803768 -0.00610524595374 0.00592228474852 -0.00552987424028
优 -0.00227870783773 0.00311660674448 -0.0153539045561 0.00991044079204 0.0222632648062 0.0146215775141 0.0213024787458 -0.00909236839432 0.00859218095536 -0.00317284531116
布 -0.00480151668905 0.00928657238755 -0.0181118800995 -0.00488269057239 0.0312427151515 0.00273823270527 0.021543331775 -0.00295466305241 0.00311978273129 -0.000654230607235
打 -0.0129528186512 0.00636568336277 -0.00298246635348 0.0103610376162 0.0189100126477 0.0144379157184 0.0109381000814 -0.00590946330133 0.0180061353458 -0.00879418315875
策 -0.00456533553213 0.0167992205947 -0.0180397591457 0.00876285111522 0.0191750497823 0.00792433212203 0.0145327340143 -0.00326128725551 0.0130735509892 -0.00425047733028
影 -0.00645383873761 0.0157107316538 -0.0122024364054 -0.00655385356103 0.0182545233458 0.0119594211526 0.0130809064121 -0.0126516638187 0.00300263460105 -0.0011063043699
女 -0.0126306138039 0.0104673836634 -0.0124971634672 0.00219356082457 0.014295523386 0.00453112179257 0.0203647225603 -0.0127286832263 0.00403200125112 0.00247223359887
需 -0.0102806290161 0.00251153207274 -0.00504745872884 -0.00242008857932 0.0205824011736 0.0129430795379 0.0245972299866 -0.016728002111 0.00511271847915 0.00412086500572
球 -0.00461353552223 0.0103321857166 -0.00539780949046 0.000463646300642 0.0197312504685 0.00469988744051 0.0175464759179 -0.0163796946552 0.0129389564405 -0.00703463800604
非 -0.00200196322509 0.0166008834459 -0.0169693347945 0.00394637144078 0.0254154968478 0.0117605107231 0.00920485629031 -0.0114806674514 0.00884423670552 -0.00840678198288
巴 -0.00567939373822 0.00580398273789 -0.0132962163115 0.00646274778457 0.012013099871 0.0155823370023 0.0233783632909 -0.0106716569637 0.0145576138734 -0.0106963071353
族 -0.00369027284766 0.0211910910606 -0.010207750825 -0.00251975533779 0.0159301700098 0.0205997086378 0.014590041606 -0.0124099507237 0.00962828093717 -0.00665113718148
准 -0.00357478135805 0.0195258014371 -0.00708286835366 0.0112910740096 0.0146535031965 0.0124883392741 0.0202654933317 -0.00710196861481 0.0151840270892 -0.00816529275252
环 -0.000975269962134 0.00328001833574 -0.0138566034703 0.00145583858669 0.0220512537909 0.00674719309699 0.0242065529183 -0.0119698802447 0.0017787250583 0.0016083533568
带 0.000860093170399 0.00743452798065 -0.00828703351203 0.00366573533228 0.0258245159988 0.00371908585378 0.0226827003628 -0.00630005656013 0.000320684802545 -0.00335120212301
命 -0.0163786655211 0.00865128089086 -0.00580829991685 0.00440102484065 0.0250104395536 0.00492994987353 0.0200379757073 -0.00993651475013 0.0113263248381 0.00224437100287
谈 -0.00465787598792 0.017136803762 -0.0073258516046 0.00817261510323 0.0295479312698 0.0195862909127 0.0135579773933 -0.00226522292378 0.00152735331648 -0.00268290898698
况 -0.00843249392658 0.00496514875651 -0.00855807861771 -0.00650429533511 0.0207649402215 0.0177214476724 0.00861443409514 -0.0143355220258 0.0122302278635 -0.00732187733733
融 -0.0107369642501 0.00808723544238 -0.0105866509807 -0.000333637884397 0.0144358709743 0.00560332116477 0.00887306873156 -0.0124019897443 0.0172889766043 -0.0131592036888
采 -0.00458579076184 0.00796747995284 -0.00121929274879 -0.000878263358496 0.0220151695686 0.0077672175836 0.01538379091 -0.00444068220635 0.0180828630005 -0.0115714588051
案 -0.00760829095233 0.00279861287629 -0.0184568822385 0.00699943757889 0.0289844822592 0.0122944113393 0.00692391571227 -0.0193106699936 0.00569737741467 -0.00688355204055
约 -0.0154401568926 0.0137683421734 -0.0068335125217 0.0112342230156 0.0210055183333 0.00718779442361 0.0130939362497 -0.010885635232 0.0024562447701 -0.0104744854534
岗 -0.00558605158184 -0.000495763836905 -0.00823098455629 -0.00206015650436 0.0207316298505 0.00576204464339 0.0198617518842 -0.0145090473843 0.0157921528475 -0.00159725169118
王 -0.0159237630182 0.0112523737087 -0.0136275965399 0.00703853240451 0.0239780621776 0.0026760475304 0.0148606302533 -0.00323446246441 0.00799204872183 -6.49323228804e-05
率 -0.0136760875364 0.0148015499862 -0.00669010345392 0.0105249999948 0.0149607876981 0.0129452352189 0.0208450593963 -0.00314484794535 0.0084809685179 -0.00597549907278
清 -0.0178619778103 0.0100600884199 -0.0114385778246 0.00866803380101 0.015635986699 0.0164770594802 0.0078735522488 -0.00385472392126 0.01358172729 -0.0066585713872
直 -0.0121107222999 0.00298240593688 -0.00644244406168 -0.000100503405545 0.0225045065954 0.0176665110596 0.00987842207437 -0.00656678308621 0.00691770159765 -0.013195529037
护 -0.00609367740279 0.00770798758956 -0.0190111439164 0.001507350783 0.0117337465188 0.0132762458414 0.0162315534044 -0.0108853872031 0.0181870885464 0.00298522288151
具 -0.00586174692018 0.0140336612376 -0.016129601746 -0.00741531740406 0.0162318576179 0.00932817965623 0.0128419501283 -0.0116419317738 0.0122257211668 -0.00776824597569
青 -0.00351008359152 0.0164809657712 -0.0067412730904 0.00230544763939 0.0135490561023 0.010830567131 0.0178686780517 -0.0133036189534 0.00100946110695 -0.0022493403761
线 -0.0147979829168 0.0033448909474 -0.0110060551923 0.0108122205459 0.0143208322486 0.00308862364075 0.0206153604623 -0.0120406882254 0.00179508104477 -0.0134583771186
根 -0.00279113404491 0.0109426374665 -0.0179547256248 -0.00457560580448 0.024845220231 0.00887492709165 0.00843676367624 -0.00961864320588 0.00158311848042 -0.0130316408224
望 -0.0174048140967 0.00615728017686 -0.00647748963262 -0.00541236517801 0.0181554247358 0.0124441638527 0.0128690493163 -0.00876135682588 0.0118270682903 0.00174832257089
快 -0.0181498057989 0.0181560201192 -0.0168250621218 0.0106640391835 0.0177893910552 0.0117351112066 0.00737984448979 -0.00702016886027 0.00450902673144 0.00333278792921
批 -0.00519580325888 0.00600191256918 -0.0139389700949 -0.00464093640974 0.0255685668913 0.00942093987751 0.0111044421044 -0.00161652380449 0.0154414635927 -0.00287314710152
备 -0.00144695485245 0.00179183101453 -0.00494152220193 -0.00158719505861 0.0215675092682 0.0187118855973 0.0197808162239 -0.00844901363015 0.0134914149076 -0.00477966827727
色 -0.0137069323651 0.00277648369225 -0.00673707387214 -0.00471524333963 0.021622360346 0.0153921191234 0.0255543404486 -0.00989962377521 0.0049730187756 -0.00567119233514
困 -0.00550232245198 0.0049315619516 -0.00515087170781 0.00752125811789 0.0214176069655 0.0183227634196 0.0113280227202 -0.0105652092216 0.017936840988 -0.000874662228483
武 -0.00198442410081 0.00454347442031 -0.00743556907212 -0.00161129922897 0.022404426509 0.0108662653127 0.0177058073944 -0.00806005722314 0.0140250733376 0.00139831313108
切 -0.0150425741423 0.0166237354373 -0.00879873529358 -0.00502634769856 0.02310967645 0.0136587310205 0.010180637535 -0.00608394161566 0.00167854145141 -0.00517635616348
访 -0.0104554557352 0.0153783911917 -0.0107211176003 0.00713819876361 0.0254875755088 0.00836731671274 0.0145142204 -0.010404772604 -0.000289140095239 -0.010628171292
士 -0.00274227676492 0.0173619168175 -0.0191333169374 0.00501106009814 0.0135872187804 0.0131176155523 0.0115664725243 -0.00541558599062 0.0133299573465 -0.01409349852
校 -0.0054348813372 0.0178869562752 -0.0044790445963 -0.00572657243692 0.0225522476054 0.0127076053384 0.0179332494479 -0.00477797000014 0.00550461606611 -0.00735516741715
告 -0.0155924949699 0.011026150853 -0.012394391516 -0.00593199805547 0.0177678190488 0.00480441803607 0.0192537462203 -0.0186629217376 0.00755041648467 0.000970843145594
供 -0.00560428350993 0.00899373916858 0.00102686680771 0.000493830285597 0.0240690638833 0.0104564792911 0.0113238767013 -0.011980191135 0.0160199522978 -0.00256053592503
许 -0.0125680529711 0.00983669052301 -0.013394562007 -0.00342079592567 0.0105166747091 0.0135022712356 0.0198179327645 -0.0132277218532 0.0068306254561 0.00163354706176
河 -0.0153122134552 0.0039533908656 -0.0101945169577 0.00228655444448 0.0215486938309 -0.00183203414697 0.0177737674932 -0.00615320270367 0.00825584132826 0.0059466661857
港 -0.0143493293808 0.0042197631534 -0.0131018945516 0.00122823504174 0.0181037072006 0.0133228927903 0.00425692969037 -0.0105597371665 0.0163796125295 -0.00451090120049
米 -0.00131918355908 0.00194374396876 -0.0125056792105 0.00641975498728 0.0206908896607 0.00883602935013 0.0177558634943 -0.00444971949566 0.0164259500257 -0.00548825442296
消 -0.00575859418451 0.00824442194432 -0.0010515765866 0.00162340917264 0.0185327586699 0.019755186694 0.00620461187603 -0.014360792975 0.0165429517568 -0.00577372819258
境 -0.012329869489 0.0132907087781 -0.0122554359852 -0.0011498574133 0.0173606294484 0.00806662521581 0.0259290402255 -0.00289872270993 0.00258942711205 -0.000435373028309
罗 -0.0045493211231 0.012257262104 -0.0178012377191 -0.0025187469352 0.0233214799324 0.00975688928042 0.00523516445666 -0.00938876894126 0.0157550697734 0.00326016212436
住 0.00142923585371 0.00873015871235 -0.00787475601858 -0.00341068342315 0.0228373269851 0.0143174645657 0.0195699638404 -0.0137870965856 -0.000515811391453 0.000260789045906
抗 0.000519039909931 0.0177460039557 -0.00798702706596 0.00462330119656 0.0103754015351 0.00532388543415 0.0150408513692 -0.00236939632972 0.00854637509807 -0.00239403340556
或 -0.015616037639 0.0179544322273 -0.00763569926019 -0.00507606176813 0.0132420258025 0.00909740590622 0.00591918935627 -0.0147491166957 0.0161513743125 0.00351062088832
列 -0.0181498253412 0.00881207804165 -0.00904817153919 -0.00217160283915 0.0152205202253 0.0175673563879 0.0138886694562 -0.0171127776349 0.00771746653611 -0.0127790754671
律 -0.0147772939767 0.00212633194702 0.00099384693831 0.00624931739865 0.0263936144441 0.011001812586 0.0105795318358 -0.0163771342924 0.00819355629641 -0.00429765805887
她 -0.00244046317781 0.0105840273678 -0.014907121339 0.00800530246943 0.0119369755588 0.0109101895087 0.00588247531503 -0.0128392136168 0.0125059026834 -0.0116905254504
段 -0.0110797231024 0.0152001041686 -0.00473832227171 0.0020938588386 0.0191648691367 0.00776153019349 0.0174492880431 -0.0090459686616 0.00839962677061 -0.00427269399444
它 -0.0164193001131 0.00406333209162 -0.00646855285118 -0.00624334006519 0.0231623395848 0.0092858932543 0.010566373968 -0.00281600046986 0.0125436058897 -0.0131006906076
仅 -0.00422544427004 0.00331926028905 -3.80970846132e-06 -0.00521508751032 0.0200886023516 0.00455955349641 0.0228800243103 -0.0132225035963 0.0103262023842 -0.0115201950227
节 -0.00798832332028 0.0118291872551 -0.00304344706611 0.00310783917532 0.0222805944853 0.0168710270805 0.010555369892 -0.0129048110577 -0.000649120513572 -0.00319275170248
助 0.00062122602232 0.0156167188665 3.17460451101e-05 0.00133501132762 0.0257429488656 0.00428474787926 0.015064215041 -0.00847385808965 0.00894935367111 -0.014128104983
银 -0.0101262735528 0.011577787826 -0.00931108217627 0.000511130430757 0.0224791197937 0.0036817528472 0.0145762523981 -0.00145881352612 0.0134955272107 -0.00884404277891
连 -0.0161275105024 0.00464237465126 -0.0143762280601 -0.00768434214763 0.0133790818551 0.00974719692705 0.0166356451146 -0.0117065494693 0.00235247811561 -0.0026463321889
负 -0.00533105609174 0.0165924260364 -0.00434232609939 -0.00222651731379 0.024418209086 0.0129727836513 0.0157947284663 -0.00963851937047 0.00446511819213 0.000329588876927
划 -0.0163964368578 0.0065367525807 -0.00581340935067 0.000272774525621 0.0199873938982 -0.000184248224269 0.0207225695996 -0.0176222979451 0.00384944811012 -0.00801327470134
么 -0.0179552155366 0.00230694521048 -0.00215531408607 0.00764685805143 0.0244922995273 0.0143345201145 0.00723286826927 -0.0147412432621 -0.000432239476774 -0.0132818483582
户 -0.0186972212215 0.00581462991404 -0.0193483951487 -0.00730459171787 0.0174245874799 0.0181068596277 0.00905819798351 -0.00260662812969 0.0139337427898 0.00205879256424
引 -0.00370102578584 0.0140840994988 -0.0116780191396 -0.00318300517843 0.0195466612073 0.0100020750917 0.0130791061321 -0.015306370499 0.00246988721962 -0.00280722323985
兴 -0.00846354606825 0.0176129176907 -0.00633722189226 0.00030760962237 0.0250226418418 0.000495629033618 0.00819363746423 -0.0117425039884 0.0147228449282 0.0015666601086
则 -0.0109242841 0.0162003085283 -0.0165831408713 0.00162535671729 0.0198012194218 0.00524154996638 0.00469958447431 -0.0139693031185 0.00763701129613 -0.00746910556934
象 -0.0116559190321 0.00432229784173 -0.0207255282909 0.00994729389745 0.0152784775056 0.00863132849838 0.0221004409375 -0.00601425187277 0.00783204344728 -0.00248299910219
光 -0.00707279049722 -0.000288732571695 -0.00903440987448 -0.00760343747849 0.0255950333867 0.0139168290152 0.00962472265573 -0.0138483249657 0.00565930749332 -0.00748198061424
失 -0.0103756256391 0.0181824492406 -0.0106309864288 0.00676338732492 0.0119626104702 0.0107409766066 0.0147724328497 -0.00839058487336 0.012605149991 0.00280638477842
值 -0.0109600218197 0.00454811293112 -0.0150546926079 0.00385763448834 0.0218840877494 0.00500215365981 0.0199406487472 -0.00530845012778 0.000612241838304 -0.00244559980357
习 -0.00560689404982 0.0136927025298 -0.00648618116275 -0.00421282580504 0.0142046382291 0.00575510255298 0.0204538446352 -0.0110558131239 0.0131514357904 0.00134373882758
艺 -0.0060034038821 0.00839602289393 -0.0100799506212 0.00243749082305 0.0100198988722 0.0149207899771 0.0217862453338 -0.00303857297135 0.014749208186 0.00255691149887
始 -0.0121268706463 0.0169073484533 -0.00308208296376 -0.000372166850919 0.0210703862139 0.00889854924861 0.02033152959 -0.00215719657002 0.00369260337723 0.00161141281237
土 -0.00401337813526 0.00706896328198 -0.00187215396635 -0.00508693323476 0.0179449812353 0.0138523674265 0.0158802095127 -0.00765434445654 0.0198104596489 -0.0132152245283
洲 -0.00317343830019 0.0166702092451 -0.0135769890544 -0.00280943974692 0.0184905499441 0.00846587167805 0.015736674784 -0.016489972839 0.00927730953309 0.00172215613122
· -0.00327295047668 0.0171094940808 -0.016156027996 0.0100135100286 0.0246170200448 0.00880868984626 0.0133900416445 -0.00490697830735 0.00422046693699 -0.00551547106343
届 -0.0121748304481 0.0148694530512 -0.0129528346995 0.00624047909557 0.00783458330966 0.0165518625068 0.0147918139972 -0.00966390184002 0.0162114867353 -0.00292186471359
响 -0.0130325896481 0.00660096289993 -0.0075095916566 0.00461745518851 0.0198037776307 0.0086654338206 0.014650585263 -0.0139053218877 0.00321473960114 -0.0101111930641
房 -0.00383494112297 0.0130953062613 -0.00315691398364 0.00701831227937 0.0108227887683 0.0123457203747 0.014987015465 -0.0138189557578 0.0195826514266 -0.00162782562193
何 -0.0125748706969 0.0101583760452 -0.0164364722007 0.00668937699221 0.0149904514027 0.00314383662171 0.00757500241362 -0.0193820604792 0.0141481116507 0.000304976458881
友 -0.0117579190142 0.010350130349 -0.0148753655373 0.0104706485362 0.0196273129405 0.00531794483628 0.0159439289772 -0.0144723161134 0.00331227689952 -0.0142080859239
九 -0.00516652151937 0.0100700613763 -0.001082473299 0.0102918302457 0.016813973007 0.00913622353754 0.0251812381178 -0.0101070538207 0.0077082588795 0.00098275967604
厂 -0.000179926404194 0.0142781740219 -0.0150259432558 0.0085261555253 0.0189812816723 0.0150052021309 0.0161347717764 -0.00241546530198 0.00134838068133 -0.0116534872195
医 -0.0143221187698 0.00456486216477 -0.0143907219629 -0.0049485547984 0.0231578694747 0.00485963781175 0.0100768423601 -0.0166047477156 0.00735786962506 0.00464993366648
州 -0.010710140479 0.00609258967763 -0.0175552979616 -0.000796269868741 0.0139116088241 0.0155307621654 0.00760414617347 -0.0175316401667 0.00476778052978 -0.00861415506792
包 -0.000214052597241 0.0148177787012 -0.00626429704454 -0.00251906624228 0.0137700860537 0.0111722230297 0.0183871074839 -0.011665130776 0.00844548621547 0.0036219785761
双 -0.00535235545676 0.0110669874511 -0.0176901153289 -0.00453378112923 0.0138262694498 0.0132082453596 0.00781788386709 -0.0201094014078 0.00671600968579 -0.000274182035519
落 -0.00541337008773 0.0173311962893 -0.00641566478364 0.00453420713406 0.0216691227114 0.00597708954861 0.0188864095635 -0.00923549565335 0.00311523339602 -0.00383211698833
源 -0.0156920659 0.0104536372194 -0.0152339577786 -0.00569012419154 0.0104324275145 0.017972028659 0.0164271209374 -0.0149292873713 0.000328107072461 -0.00348080104382
验 -0.0130667178802 0.0128592915639 -0.00667486676228 0.00588079140159 0.0119263287084 0.0116060248388 0.0147977650521 -0.00649185577304 0.0137215896304 -0.00165671158879
财 -0.00805922773878 0.0079264111005 -0.00198930682344 0.00255728984165 0.0202451163248 0.0129901902535 0.0107537572686 -0.0170206484425 0.00700364893832 -0.00495576976891
往 -0.00130888952911 0.00233486826231 -0.0130416783485 0.00246247655547 0.019496348625 0.00502278934238 0.00945608553584 -0.0108764669702 0.0120861820266 -0.0104438605666
断 -0.0135474805623 0.0186202006776 -0.00404117268125 0.00258284993087 0.0223274535715 0.0188470785522 0.00690438947356 -0.00321169775793 0.00481051431841 0.000797084128292
镇 -0.00163425255335 0.0170146813744 -0.0141369173941 -0.00838912737669 0.0185518716976 0.00866678813093 0.0146797642239 -0.002404078465 0.0064875897989 -0.00599688348206
花 -0.00542085789862 0.0114861151411 -0.00955260275366 0.0105934201985 0.0196605610996 0.00438691289937 0.0160185489457 -0.00819844184607 0.013862673163 0.00272914299786
息 -0.00623894961467 0.00441847307039 -0.00274223994399 0.00495987961167 0.0235424122329 0.0126489133889 0.0127164438863 -0.0138630770502 -0.000505536519387 -0.00782474159335
范 -0.0158994623647 0.00715470998839 -0.0130928155419 0.00579155250336 0.0108242783899 0.000450354881992 0.0197542628703 -0.0176562638433 0.0128679810913 0.0047573976544
越 -0.015446242623 0.0107070816082 -0.00943941187408 0.00783826546343 0.0205464223248 0.00531923801752 0.0044591864645 -0.0100991582612 0.0166129028911 0.00384393511818
考 -0.0139722773027 0.0152709033301 -0.0164470551835 -0.00656580506322 0.0247819828182 0.00616578676603 0.0036714444003 -0.00903320224353 -0.00157427098579 -0.0132680857687
较 -0.00718336569571 0.00468618492247 -0.00686786252005 -0.00126024243933 0.012529755037 0.0203450761921 0.0108611070963 -0.019508554587 0.00522509730932 -0.0095843756138
获 -0.0118467874312 0.00685112892124 -0.00261702228237 -0.00687734624324 0.0156663463053 0.00218730773483 0.0243497310151 -0.0172047348382 0.00857512042535 -0.00473957947887
易 -0.0025452708071 0.00575541575039 -0.00438550943787 -0.00733080381624 0.0280760680925 0.0024804504455 0.0151775725108 -0.0170916589012 0.00679786695231 -0.00174227837314
师 -0.0133977549531 0.00369703610221 -0.0033817350397 0.00841906302573 0.0168923441904 0.00856569159185 0.00415395357945 -0.0152202451691 0.0163287546672 -0.0133803594726
香 -0.00604646771756 0.0123005537716 -0.0120668903096 0.000527766914117 0.0136520313266 0.00270482643781 0.0183576029469 0.000967429583489 0.0115725190221 -0.0129276978418
讯 -0.00674020985896 0.00592881044766 -0.014906180726 -0.0042264664538 0.023121132491 0.0107168974745 0.0110539689364 -0.00320573127183 0.00507351946085 0.000383076061839
热 -0.0174964681769 0.0039362214236 -0.00254258924518 0.00268635444464 0.0222179301025 0.00900930922971 0.0140101426367 -0.0177980226703 0.00267849340427 0.00382935056923
容 -0.00879712602793 0.00927318183963 -0.00535095216163 -0.00772732011444 0.0193670318745 0.0178669516004 0.0132011251526 -0.0119313669826 0.00807343851761 0.00268633202737
存 -0.00264692377392 0.0109644495477 -0.00107808668339 -0.00775671527537 0.020995090079 0.0102869617649 0.0107681508346 -0.0153683534968 0.0139076202228 -0.00331680764096
功 -0.000769935730663 0.00963107285147 -0.00830894520317 0.00997129833557 0.0204738802389 0.00513726400311 0.0153809818586 -0.0138511733954 0.0148249271296 0.00179473686929
英 -0.014913649821 0.00652031244414 -0.0103727570634 -0.00542704660453 0.0159431750681 0.0135137888578 0.0108331692842 -0.0128103142893 0.0109960058206 -0.00257388338841
依 -0.000133709188275 0.0169199752309 -0.00840419654094 -0.00220022741884 0.0103086599266 0.011759196417 0.0210082875481 -0.0122393842078 0.00631582776496 -0.00197374826106
致 -0.000226925251459 0.00648217218883 -0.00100766290165 0.00264747797901 0.0264265753631 0.0174546295071 0.0107240342008 -0.00242237456586 0.0200116268708 0.00215955325157
儿 -0.00192039061699 0.00778833283936 -0.00275558985506 0.00994400055173 0.0166129002533 0.00487058306199 0.0220070885496 -0.00988962683657 0.00231799771645 -0.006983197505
继 -0.0100994228022 0.0114474100554 -0.00900493645272 0.00450034132202 0.0216242311923 0.0126187274093 0.0148056557511 -0.000460719688061 0.0025708397663 -0.00351003469045
讲 -0.00233830075801 0.00361649073466 -0.013938694324 0.00538242512349 0.0229876645886 0.0172176691194 0.0127464051356 -0.00519166973911 0.00192141893483 -0.00778285602458
装 -0.00541560196618 0.00316165412299 0.000164680675204 -0.00537864248466 0.0248919660055 0.00681584036106 0.020026958857 -0.0123729931457 0.0142167736583 0.00344819644071
爱 -0.00694973465996 0.00439158108033 -0.000835124426777 0.00277165368025 0.0158666063009 0.00957118011263 0.0211248209324 -0.00276879867023 0.0182536559778 -0.0120790887461
游 0.0028042201059 0.00763176840881 -0.00688595793659 0.000450708361717 0.0170496182313 0.0128601666107 0.0119217638009 -0.0147771437678 0.0114104690715 -0.0120265742259
亲 -0.0102935225404 0.00914870982525 -0.0088158663769 -0.00282659592013 0.0178118939046 0.0161649333269 0.0108833201216 -0.00426243945718 -0.00038329073609 -0.0116304317635
监 -0.000762797793966 0.0107140674797 -0.0190289466954 0.00429948744998 0.020806440355 0.00360702868331 0.0140607668457 -0.0094730412929 0.0130317084638 0.00258353784692
足 -0.0082931227424 0.00223365313224 -0.0167317877514 0.000266279937379 0.0129359174752 0.0187906407271 0.00953865990121 -0.012924813423 0.0095533588673 -0.00787037715811
稳 -0.00525395630665 0.0125371849478 -0.000638295393188 0.00863688660993 0.0218989827876 0.00971605178422 0.0181717161212 -0.00847560026991 0.00507104694577 -0.0110531565365
复 -0.00707063936501 0.00552870860834 -0.0105641329239 -0.00803171451397 0.0214853295807 0.000779787188617 0.0188503456687 -0.0155344956657 0.0019222394765 -0.00216875073727
边 0.000962107218945 0.00939176714713 -0.00222014919042 -0.00658815741057 0.0209843591133 0.0148578759279 0.0139912897052 -0.0186324932116 0.000290114136196 -0.0071253402625
八 -0.00275371229182 0.0191844262861 -0.00919738268603 -0.00229508301539 0.0149686706375 0.00162214471792 0.0132728277206 -0.00726725048396 0.0111630134709 -0.0139616860807
速 -0.00610382091609 0.0140852164967 -0.00968611200191 0.0110498581815 0.015791224368 0.0181534667473 0.00998429113933 -0.0159830964744 0.004123382509 0.00282963115971
型 -0.000317455722888 0.00676448793275 -0.00918265373553 -0.00818703816414 0.0186447168925 0.0171649054542 0.0171868417529 -0.0132061737767 0.00227153161907 -0.0049503067203
类 -0.00997050082352 0.0046915850112 -0.00311960313922 0.00758556540645 0.0232054396203 0.000517490045324 0.0234933089684 -0.0136414359412 -0.000209059261297 -0.00172112187145
空 -0.00276577072899 0.0128831642929 -0.0105181438823 0.00903911794497 0.0150781019073 0.0104009992502 0.022665624895 -0.00513764125009 0.000520487441503 0.0012996617656
维 0.000267920075887 0.0160131716096 -0.00898524149194 0.00828944248418 0.00979943948647 0.00497259151857 0.0217736043439 -0.0190432734949 0.00676734643558 0.00290434323139
紧 -0.00740430313735 -0.000263390199588 -0.0077213117934 0.00615813401322 0.0116834812182 0.0163688296818 0.0208120874533 -0.0148809204358 -0.000850190041958 -0.00756297853806
声 -0.00697523373746 0.00134400991936 -0.012176565516 0.0102664880995 0.0196374623285 0.0102211685038 0.016399066876 -0.0181014471725 0.0002408275092 0.000238583502946
警 -0.0019326863155 0.0147517777492 -0.00517544939442 0.00265586443037 0.0128349453064 0.0143554951019 0.0187513680663 -0.00904021641016 0.00466618801523 -0.0124367396816
宣 -0.00150199424877 0.0124567972358 -0.00926408671832 0.00180068088423 0.0250915116932 0.0168513584752 0.0072591249196 -0.00245874796963 0.0084949442162 -0.0118739525395
富 -0.0117906228109 0.0138869813974 -0.00106396365109 -0.00570586946726 0.0216243685357 0.0139929724179 0.0109267461404 -0.00546230086496 0.00142776023181 -0.00967333476166
未 -0.0155100467835 0.00696049927053 -0.0108927370855 -0.00706832416149 0.0207572782575 0.00109934133344 0.0117837471526 -0.0117054690887 0.00827531276282 1.67494366549e-05
远 -0.00199502356229 0.00409873234772 -0.0162591294037 0.00877107406548 0.0249210107052 0.0160503521077 0.00406236700176 -0.00275013753987 0.00719270707239 -0.000991988705115
照 -0.00473818912396 0.00936617476485 -0.00425323745731 0.00408418763817 0.0181606413426 0.00182028501158 0.0204339470461 -0.00403423791183 0.0172604309416 0.00194802828962
图 -0.00689574400575 0.018907518681 -0.0063946297939 -0.00173067607356 0.0137259508535 0.0130029807536 0.0207523328896 -0.00455192403104 0.00546032462314 0.00328801863931
欧 -0.00722961450609 0.015212733522 -0.00347641675012 0.0105609253973 0.0163439778345 0.00907714305167 0.0242187398017 -0.00461107308027 0.00791038291381 -0.00543062248383
评 -0.00521946537563 0.00302331516028 -0.0132113315631 -0.00356368295547 0.022851629501 0.0176067212429 0.0104654831063 -0.00262916985141 0.0102722470058 0.000197549078902
养 -0.0137530201698 0.0133685457456 -0.00274258633587 0.00651152659767 0.0166461675449 0.00867393788811 0.0157786263875 -0.00505312544604 0.0178492672113 -0.00249713898247
满 -0.0163412878199 0.0159603826147 -0.0149940663278 -0.00503543908302 0.0261049130932 0.000209514698317 0.00622693277496 -0.00177060210217 0.00406282500357 0.00110908261498
让 -0.00550690217279 0.00306812790923 -0.00368941113119 -0.00389591274555 0.0243153920905 0.0087424147904 0.0170878420311 -0.0022646452423 0.00506070744998 -0.00876096030253
即 -0.0106558466462 0.00540007688496 -0.00561889961643 0.00741332691938 0.0230324355641 -0.000409362896759 0.0150389946718 -0.00647890619649 0.0093671787028 0.00229745989766
泽 0.00237121198895 0.0125526819661 -0.0135067978459 0.0106971468086 0.0219417132243 0.00390676742379 0.00421189810229 -0.00207300644915 0.0166867635568 -0.0108093312367
湖 -0.00256831778917 -0.00277478596779 -0.0154796012055 0.00696000172333 0.0195897522211 0.00419674599493 0.00950223900605 -0.00163629371859 0.013550882474 -0.00755809081525
核 -0.00101734111428 0.00221650871865 -0.00835533184922 0.00594106289871 0.0192463469876 0.00843026255373 0.0157926799501 -0.0174600085715 0.0033857154013 -0.00932294014371
石 -0.0157359234048 0.00363421342866 -0.00104938045467 0.00975562312552 0.0186981951142 0.00942031524788 0.0135224616495 -0.00052093359504 0.0173861458669 -0.00986496812784
客 -0.0153477230758 0.000196780302717 -0.0109014404142 0.000156103531319 0.0122257891229 0.0176707471078 0.0204460563933 -0.0044947375521 0.00798004807696 0.00367910897933
培 0.00144475539459 0.0168582319909 -0.0129337045525 0.0089915325482 0.0144035081298 0.0019443957001 0.0185434723323 -0.00337793168292 0.0181108846776 -0.00440907958487
善 -0.0141095978024 0.00250876526137 -0.0118493575284 0.0037269882074 0.0213432601047 0.00482257353013 0.0144663015769 -0.00342996959618 0.00950883784082 -0.00474366612997
检 -0.00697145746827 0.00558052950907 -0.0158680827766 -0.00387200034251 0.0150939223445 0.00981964642927 0.011560032815 -0.0110040659246 0.0133750130856 0.000329695977897
乐 0.0009965866902 0.000712805269571 -0.00397299849124 -0.00666925681387 0.0149147565968 0.0184915840913 0.0207046114867 -0.0070574779359 0.00717101717576 -0.0134049539968
官 -0.0113688676251 0.00787556813259 -0.00880026143925 0.000726963732606 0.00645951020996 0.0112128065361 0.0114843662749 -0.0181073492743 0.0162788673377 -0.00973472334888
排 -0.0152581059445 0.0159497583899 -0.0126568624851 0.0043042482004 0.0109682168952 0.00980565047806 0.00704876503507 -0.0170610723775 0.00393157710562 0.00451179168034
察 -0.0118513498796 0.0165695312826 -0.0104257992514 0.00926529983385 0.0220411263621 0.000238313699401 0.00722612989838 -0.0196558060034 0.000916700935052 -0.00994273123966
危 0.000371844359557 0.0113261010649 -0.0110689487483 -0.000828641116807 0.0197909237711 -0.00174670073708 0.0113944646313 -0.0145362565601 0.0160589988061 -0.00412098166599
销 -0.00120037908065 0.00486278116828 -0.000650257697424 -0.00647089227859 0.0137061323298 0.0185987437099 0.0233199729514 -0.0173133058098 0.00579810671626 -0.00574216282455
千 0.0014295570014 0.0117148775769 -0.00158124731781 0.00907791708817 0.0103010749738 0.0111208889364 0.0236393141265 -0.0175981536392 0.00729418455826 0.00112622671866
演 0.00206676071327 0.00213369558572 -0.0104818728736 0.00692245154266 0.0202786993946 0.0174313223233 0.00673409604324 -0.00901181778376 0.0110682889512 0.00190655877243
注 -0.000353576698651 0.00832688989532 -0.00589308345915 -0.00816782823758 0.0206361320602 -0.000492082859743 0.0163798949277 -0.00913827367242 0.017259067598 -0.0106701746101
素 -0.00656510764883 0.0124191032224 -0.00450909646155 0.00735970561629 0.0102029305436 0.00903814592607 0.0156287753147 -0.0143407589688 0.0124557633388 -0.00877904290878
希 -0.00126147493828 0.00911118977118 -0.0102799791775 0.0105456706366 0.021834959751 0.00387710766602 0.00586706776952 -0.0109831419965 0.00389692063835 -0.0102888318878
挥 0.0019607435749 0.0158914432991 9.7160360608e-05 0.000604099021569 0.0214922901131 0.00578361184458 0.0196953440896 -0.000514588735968 0.00841493993514 -0.00418840838865
须 -0.00491646824947 0.00170369846588 -0.01435418717 -0.000809426405684 0.018932373982 0.0106569177689 0.0172842451398 -0.00828620650713 -0.00118569895478 -0.00252934533659
础 -0.0176804290273 0.00897862719821 -0.0152718493095 0.00884680119685 0.0123868817618 0.0102390085244 0.0133912545724 -0.00405614747286 0.0106618049189 -0.00499772243341
阿 -0.0072068990606 0.00631353789397 -0.00950632312064 -0.000778279752263 0.0139937901467 0.0175967493751 0.0145733448362 -0.0161030453768 0.000492427425347 -0.0142440378829
执 -0.0124634919992 0.00576270061309 -0.00439434708941 -0.000847834337417 0.0235024332462 0.011242652568 0.0110169482212 -0.0164968579273 -0.00135425940186 -0.00647931910266
印 -0.0107498449138 0.00824892913152 -0.0037797656071 -0.0060311856824 0.0132597564266 0.00609064809197 0.0168351537513 -0.00698235008233 0.0181502498188 -0.00952628611462
税 -0.0153739624125 0.0099246265883 -0.0128163723589 0.0116040316029 0.00947900026465 0.00394771124048 0.0199120573553 -0.0125408998859 0.0102857325093 0.00196353028783
突 -0.00604591016315 0.0136071275356 -0.00670323727629 -0.00647400030527 0.0140439806366 0.0141160086773 0.0148969387545 -0.00216396958317 0.0170687280959 0.00336423768442
尼 -0.0145984361465 0.0127492117562 -0.0186234061211 0.00681465711374 0.0104934476495 0.0139799306278 0.0098957798958 -0.00886409775837 0.00499357829407 -0.0140138816077
